/*
  AIfES: Configuration file automatically generated from AIfES-Converter
  https://github.com/Fraunhofer-IMS/AIfES-Converter

  Add this file to your IDE with the aifes_e_f32_fnn.h file

  Copyright (C) 2022  Fraunhofer Institute for Microelectronic Circuits and Systems.
  All rights reserved.
  AIfES-Converter is free software: you can redistribute it and/or modify
  it under the terms of the GNU Affero General Public License as published by
  the Free Software Foundation, either version 3 of the License, or
  (at your option) any later version.
  This program is distributed in the hope that it will be useful,
  but WITHOUT ANY WARRANTY; without even the implied warranty of
  MERCHANTABILITY or FITNESS FOR A PARTICULAR PURPOSE.  See the
  GNU Affero General Public License for more details.
  You should have received a copy of the GNU Affero General Public License
  along with this program.  If not, see <https://www.gnu.org/licenses/>.
*/
#ifndef AIFES_E_F32_WEIGHTS
#define AIFES_E_F32_WEIGHTS


const float aifes_e_f32_flat_weights[] = {0.04658861085772514f, 0.034683313220739365f, 0.018377264961600304f, -0.11848311871290207f, -0.09234113246202469f, -0.024195369333028793f, 
		0.16478942334651947f, -0.16833136975765228f, 0.11869124323129654f, -0.2069680392742157f, 0.04988563060760498f, 
		-0.1247151717543602f, -0.05756733566522598f, 0.16012322902679443f, -0.14391528069972992f, 0.03782729059457779f, 
		-0.0009272464085370302f, 0.0023818081244826317f, 0.16253754496574402f, -0.16189169883728027f, -0.0738595500588417f, 
		0.11843421310186386f, 0.05370942875742912f, 0.11725909262895584f, -0.003783172694966197f, 0.09458921104669571f, 
		-0.03637169674038887f, 0.10979782044887543f, -0.08610185980796814f, -0.1146150454878807f, -0.07840004563331604f, 
		-0.15386702120304108f, 0.011562551371753216f, -0.19766147434711456f, -0.11184387654066086f, 0.06381533294916153f, 
		-0.07177485525608063f, 0.029727019369602203f, 0.013238308019936085f, 0.039493534713983536f, -0.08831238001585007f, 
		-0.042290959507226944f, -0.08942245692014694f, -0.020243443548679352f, 0.026370598003268242f, 0.12401009351015091f, 
		-0.013903792947530746f, 0.09074968099594116f, -0.13610932230949402f, 0.18798908591270447f, -0.04648926481604576f, 
		-0.041618410497903824f, -0.12338262051343918f, 0.0043093920685350895f, -0.16111205518245697f, 0.19643449783325195f, 
		0.1545422077178955f, -0.12009749561548233f, 0.013148918747901917f, -0.13388188183307648f, 0.1439804881811142f, 
		0.15835650265216827f, -0.0233503095805645f, -0.21918749809265137f, 0.09485312551259995f, -0.05152517184615135f, 
		-0.013678185641765594f, 0.14683698117733002f, 0.18969975411891937f, -0.10932551324367523f, 0.1280200332403183f, 
		-0.050022173672914505f, -0.1259891241788864f, 0.07300199568271637f, 0.03800094872713089f, 0.025700902566313744f, 
		-0.08024672418832779f, -0.07031691074371338f, 0.04167914018034935f, -0.042935244739055634f, 0.20503051578998566f, 
		0.14827989041805267f, 0.152104452252388f, -0.0708533227443695f, -0.15884779393672943f, -0.14760127663612366f, 
		0.07573239505290985f, 0.1574779748916626f, 0.022499071434140205f, 0.06573749333620071f, -0.11393345147371292f, 
		0.17653903365135193f, -0.03272180259227753f, 0.016756422817707062f, 0.13906195759773254f, 0.00608500000089407f, 
		0.08145052939653397f, -0.047083694487810135f, 0.008077957667410374f, -0.018125619739294052f, -0.10651279240846634f, 
		0.060414642095565796f, -0.08232803642749786f, 0.2643587291240692f, -0.17490249872207642f, -0.026219958439469337f, 
		0.13449841737747192f, -0.05088764801621437f, 0.2007169872522354f, -0.04914380982518196f, 0.24672649800777435f, 
		-0.038501858711242676f, 0.02921580709517002f, -0.09675692021846771f, -0.107834592461586f, 0.0972253754734993f, 
		0.04148038849234581f, 0.035123761743307114f, 0.08710874617099762f, 0.15940219163894653f, 0.19389259815216064f, 
		-0.12978169322013855f, 0.04415586218237877f, -0.09566997736692429f, 0.027431027963757515f, 0.02627839706838131f, 
		0.16101939976215363f, 0.0016297140391543508f, 0.0842069536447525f, -0.1726887822151184f, 0.005036328453570604f, 
		0.00928523764014244f, 0.062093209475278854f, 0.0422157384455204f, 0.08149713277816772f, 0.16983655095100403f, 
		0.055953480303287506f, 0.03687991946935654f, 0.06764638423919678f, 0.036313433200120926f, 0.00511167524382472f, 
		0.016997989267110825f, -0.037679944187402725f, 0.06828486919403076f, 0.14703232049942017f, -0.19148938357830048f, 
		-0.10798820853233337f, -0.1050485372543335f, -0.1670157015323639f, -0.1359473019838333f, 0.08998490124940872f, 
		0.14327454566955566f, 0.07655730098485947f, 0.15937602519989014f, 0.019470110535621643f, 0.14210523664951324f, 
		0.044739730656147f, -0.021137047559022903f, 0.20825378596782684f, -0.05383644998073578f, -0.12656281888484955f, 
		0.056064292788505554f, -0.021299485117197037f, -0.1532154530286789f, -0.060327496379613876f, 0.04576748609542847f, 
		-0.11526758223772049f, 0.03515206649899483f, -0.03384360298514366f, -0.06436862051486969f, 0.02446366846561432f, 
		0.14447404444217682f, 0.015023702755570412f, 0.08647523075342178f, 0.14686594903469086f, 0.10641904175281525f, 
		-0.038569990545511246f, -0.06025359407067299f, 0.02420220896601677f, 0.11086484789848328f, 0.12459706515073776f, 
		-0.002058832673355937f, -0.027345949783921242f, 0.17030373215675354f, 0.04024888575077057f, 0.03375451639294624f, 
		0.10801608115434647f, -0.16366896033287048f, 0.07307033240795135f, 0.10332958400249481f, 0.0543636828660965f, 
		0.19915032386779785f, 0.07673449069261551f, -0.06156257167458534f, 0.10534515976905823f, -0.0390700064599514f, 
		0.13982652127742767f, 0.15361645817756653f, 0.09603185951709747f, 0.1494562327861786f, -0.16895107924938202f, 
		0.11540159583091736f, 0.197515070438385f, -0.14374378323554993f, 0.010664870962500572f, 0.10004487633705139f, 
		0.13742169737815857f, -0.16847482323646545f, 0.07983104139566422f, -0.08595404028892517f, -0.19437578320503235f, 
		-0.033475492149591446f, -0.05948532000184059f, -0.14852729439735413f, 0.1372804045677185f, -0.13897278904914856f, 
		-0.15516696870326996f, -0.05054299533367157f, -0.15952572226524353f, -0.14708508551120758f, 0.294588565826416f, 
		0.13887782394886017f, -0.008072941564023495f, 0.1172889769077301f, 0.11465474218130112f, -0.04575372114777565f, 
		0.06832512468099594f, -0.11085975915193558f, -0.0555255189538002f, -0.052135225385427475f, -0.1345549076795578f, 
		-0.03182729333639145f, -0.0959596261382103f, -0.1484043002128601f, -0.08031339943408966f, -0.09753576666116714f, 
		-0.08083011209964752f, -0.1937667578458786f, 0.08459928631782532f, 0.0035577414091676474f, 0.17611590027809143f, 
		-0.11388834565877914f, -0.015809085220098495f, -0.0382942259311676f, -0.019052444025874138f, -0.0790787786245346f, 
		-0.08895103633403778f, -0.07224342972040176f, 0.12525959312915802f, -0.15332472324371338f, -0.10600844770669937f, 
		-0.09431015700101852f, 0.05963004752993584f, -0.07076075673103333f, 0.08742313832044601f, -0.11378373205661774f, 
		0.11735542118549347f, -0.14774109423160553f, -0.08891130238771439f, 0.0003403140290174633f, 0.1409662812948227f, 
		0.138868510723114f, -0.00792300421744585f, 0.09301670640707016f, 0.08056463301181793f, 0.04398083686828613f, 
		-0.11465553194284439f, -0.13834945857524872f, -0.04799175634980202f, 0.1325688511133194f, -0.179253950715065f, 
		-0.17742350697517395f, 0.040778644382953644f, -0.16412711143493652f, 0.12174709886312485f, -0.09810229390859604f, 
		-0.13329896330833435f, -0.160605788230896f, 0.02614343911409378f, -0.1116534098982811f, 0.05951106548309326f, 
		0.07265976071357727f, 0.013755992986261845f, 0.1021282747387886f, -0.14130106568336487f, -0.19214893877506256f, 
		-0.02690037339925766f, 0.08747431635856628f, 0.15914185345172882f, -0.1080431118607521f, -0.10208121687173843f, 
		-0.15815044939517975f, -0.01170434057712555f, -0.08608738332986832f, 0.13580654561519623f, -0.048743218183517456f, 
		0.14022530615329742f, -0.009679933078587055f, -0.157679483294487f, 0.020572127774357796f, 0.15934264659881592f, 
		-0.07459378987550735f, 0.06456688791513443f, -0.12184148281812668f, -0.08477697521448135f, 0.05289103463292122f, 
		-0.08710167557001114f, 0.15153317153453827f, 0.0957440435886383f, -0.0806083083152771f, 0.09854310005903244f, 
		0.005479126237332821f, -0.07706250995397568f, -0.20008766651153564f, 0.12474793940782547f, 0.1650678515434265f, 
		0.034043699502944946f, 0.1020716056227684f, -0.034642163664102554f, -0.10641797631978989f, -0.12503217160701752f, 
		-0.2065029889345169f, 0.09396471083164215f, -0.029802151024341583f, -0.11939427256584167f, 0.050022754818201065f, 
		-0.17298685014247894f, -0.06262559443712234f, 0.030123453587293625f, -0.1487371027469635f, 0.15540514886379242f, 
		-0.13038989901542664f, -0.08078583329916f, -0.11075175553560257f, 0.010732291266322136f, 0.06578470021486282f, 
		-0.13400298357009888f, -0.1037089005112648f, 0.17175616323947906f, -0.17261169850826263f, -0.07541276514530182f, 
		0.041075170040130615f, -0.07844259589910507f, -0.10582289099693298f, 0.09009137004613876f, 0.12676434218883514f, 
		0.00822440255433321f, -0.12210851907730103f, 0.11565917730331421f, 0.07059192657470703f, 0.0521213598549366f, 
		0.18047228455543518f, -0.015759484842419624f, -0.18361791968345642f, -0.08235238492488861f, 0.012803216464817524f, 
		-0.12404192239046097f, 0.15562403202056885f, -0.13983072340488434f, -0.0893867164850235f, 0.07947231084108353f, 
		-0.06197195500135422f, -0.091616190969944f, -0.06480719149112701f, -0.04823923110961914f, -0.045574869960546494f, 
		-0.18574568629264832f, 0.13354532420635223f, -0.05068565905094147f, -0.03433934971690178f, 0.010637125931680202f, 
		0.012270193547010422f, -0.11013494431972504f, 0.12160313129425049f, -0.15708494186401367f, 0.06996309757232666f, 
		0.010735468938946724f, -0.19446790218353271f, -0.1209525465965271f, -0.09774710983037949f, -0.17291751503944397f, 
		-0.22445464134216309f, -0.12005331367254257f, -0.0694420337677002f, 0.030078662559390068f, -0.14085416495800018f, 
		-0.12270550429821014f, -0.07880555838346481f, -0.004601940046995878f, -0.019544128328561783f, -0.11569134145975113f, 
		0.06127804145216942f, -0.07300814241170883f, 0.12766209244728088f, -0.021145401522517204f, 0.11249727755784988f, 
		0.0011517283273860812f, -0.05908861756324768f, -0.08520544320344925f, 0.03340291604399681f, 0.08529184758663177f, 
		-0.15951257944107056f, -0.059387437999248505f, 0.04139278456568718f, -0.022552845999598503f, -0.0363694503903389f, 
		-0.18310655653476715f, 0.012481077574193478f, -0.16487042605876923f, -0.07497435808181763f, 0.15742409229278564f, 
		0.0858842208981514f, -0.03989551216363907f, -0.1595906913280487f, -0.0752478763461113f, -0.06354443728923798f, 
		-0.13391613960266113f, 0.012753350660204887f, -0.06427406519651413f, -0.05150165781378746f, -0.09497719258069992f, 
		-0.06221780553460121f, -0.09483233094215393f, 0.1278144121170044f, 0.09387143701314926f, 0.0982290506362915f, 
		0.08259327709674835f, -0.04991331696510315f, -0.10725157707929611f, -0.09637553244829178f, -0.1427849978208542f, 
		-0.016162995249032974f, -0.009487498551607132f, -0.05672402307391167f, -0.119209423661232f, -0.06398044526576996f, 
		0.0813000276684761f, -0.04794980585575104f, 0.023142144083976746f, 0.07010781019926071f, -0.1750423163175583f, 
		0.14131483435630798f, -0.08982651680707932f, 0.002997005358338356f, 0.12141425162553787f, -0.08156753331422806f, 
		0.13784021139144897f, -0.013113497756421566f, 0.2051115334033966f, 0.009554228745400906f, -0.006555511150509119f, 
		-0.055096279829740524f, 0.03995648771524429f, 0.02392921969294548f, -0.07784777879714966f, -0.032042246311903f, 
		-0.07538671046495438f, -0.1438402384519577f, -0.16295048594474792f, -0.1282052993774414f, -0.016995638608932495f, 
		0.03832176327705383f, 0.036707811057567596f, -0.15055929124355316f, -0.08640649914741516f, 0.05816330760717392f, 
		0.005520556587725878f, 0.08573652058839798f, 0.15746858716011047f, -0.19361458718776703f, -0.043144866824150085f, 
		-0.14526206254959106f, -0.06536906957626343f, -0.12376654893159866f, 0.044655971229076385f, -0.14088855683803558f, 
		0.017444726079702377f, -0.06602222472429276f, -0.1265850067138672f, -0.1433502584695816f, -0.17343977093696594f, 
		-0.10704344511032104f, -0.040811918675899506f, 0.16601034998893738f, -0.05191989243030548f, 0.12623491883277893f, 
		0.048269122838974f, -0.17263495922088623f, 0.033846523612737656f, 0.16842421889305115f, 0.08377035707235336f, 
		0.07350832223892212f, 0.14284662902355194f, -0.048857737332582474f, -0.021519070491194725f, 0.07438748329877853f, 
		-0.1875377744436264f, 0.026636242866516113f, 0.05669982358813286f, 0.018120819702744484f, -0.0918787270784378f, 
		-0.12289068102836609f, -0.0986894965171814f, 0.022424429655075073f, -0.05257563665509224f, 0.16175617277622223f, 
		-0.1224760115146637f, -0.10251126438379288f, 0.09007082134485245f, 0.09997480362653732f, 0.018256252631545067f, 
		-0.0696561262011528f, 0.012121418491005898f, 0.18718217313289642f, -0.012501153163611889f, 0.10137031227350235f, 
		0.07199069857597351f, 0.05453048273921013f, -0.09124718606472015f, -0.1779050976037979f, -0.11573786288499832f, 
		-0.20532545447349548f, -0.03682126849889755f, -0.08381909877061844f, -0.1054769903421402f, 0.05000356212258339f, 
		-0.05438222363591194f, -0.12455500662326813f, -0.005690323188900948f, 0.040280066430568695f, 0.08528830111026764f, 
		-0.0987224280834198f, 0.11511880159378052f, 0.1409415304660797f, -0.1663450300693512f, -0.1283080279827118f, 
		0.13650210201740265f, 0.0012425685999915004f, 0.030811185017228127f, -0.15475985407829285f, 0.10671025514602661f, 
		-0.14091962575912476f, 0.24915553629398346f, -0.12727630138397217f, -0.10128552466630936f, -0.10966338217258453f, 
		-0.12231355905532837f, -0.14719122648239136f, -0.015633361414074898f, 0.07473065704107285f, 0.14720012247562408f, 
		0.05759808048605919f, 0.13758914172649384f, -0.008613009937107563f, -0.06566488742828369f, -0.16138099133968353f, 
		-0.05183275789022446f, 0.059087373316287994f, 0.04325716942548752f, -0.02550157532095909f, -0.13005132973194122f, 
		-0.009346750564873219f, 0.027840929105877876f, 0.025338033214211464f, -0.08888961374759674f, 0.16547635197639465f, 
		0.07570699602365494f, -0.019942743703722954f, -0.06913875043392181f, -0.07086017727851868f, -0.11905305087566376f, 
		-0.14322160184383392f, 0.04875842481851578f, -0.10957390069961548f, -0.08164742588996887f, -0.1358763873577118f, 
		-0.0486287921667099f, -0.10826294869184494f, -0.010315477848052979f, 0.13552142679691315f, -0.13233345746994019f, 
		0.15344850718975067f, -0.11529852449893951f, 0.1044108048081398f, -0.15465322136878967f, -0.09888488799333572f, 
		0.11399330198764801f, 0.038478877395391464f, -0.036098282784223557f, -0.0808165967464447f, -0.019104478880763054f, 
		0.006632887292653322f, -0.026493534445762634f, -0.061052799224853516f, 0.01470782607793808f, 0.029570218175649643f, 
		0.04373055696487427f, 0.153962641954422f, -0.04604417458176613f, -0.0456341914832592f, 0.01084719318896532f, 
		-0.02468445710837841f, 0.04902857169508934f, 0.02790166810154915f, 0.1113084927201271f, -0.1309056282043457f, 
		0.17484484612941742f, 0.01606985181570053f, 0.04100964590907097f, -0.09634150564670563f, -0.029105108231306076f, 
		-0.1134193167090416f, -0.19457462430000305f, -0.1277226060628891f, -0.07245483994483948f, 0.016302436590194702f, 
		-0.1377231478691101f, 0.047511182725429535f, 0.0766032263636589f, 0.01996178738772869f, -0.1229144036769867f, 
		-0.10257529467344284f, -0.00935730617493391f, 0.10622619837522507f, 0.09967776387929916f, -0.11880961805582047f, 
		0.21454942226409912f, -0.057813096791505814f, -0.1296759992837906f, -0.09808149933815002f, 0.2067316174507141f, 
		-0.12120294570922852f, -0.09858264029026031f, -0.10470734536647797f, 0.0762941911816597f, 0.015765568241477013f, 
		-0.13541409373283386f, -0.0852290615439415f, -0.03639669716358185f, -0.1629621982574463f, 0.019013386219739914f, 
		-0.07218500971794128f, -0.021558552980422974f, 0.10917413979768753f, -0.15367893874645233f, 0.029193585738539696f, 
		0.08497700095176697f, 0.054351139813661575f, 0.06930723786354065f, -0.045678120106458664f, 0.04663761705160141f, 
		0.09816841781139374f, 0.13659073412418365f, -0.009862727485597134f, 0.11968449503183365f, 0.0895497053861618f, 
		0.16034619510173798f, 0.18973363935947418f, 0.13155293464660645f, -0.13284480571746826f, 0.05037612095475197f, 
		0.1867484450340271f, 0.13664397597312927f, -0.028665758669376373f, 0.05479701980948448f, 0.12923169136047363f, 
		0.043175552040338516f, -0.05676940083503723f, 0.20812620222568512f, -0.20704543590545654f, -0.1385442316532135f, 
		-0.16275271773338318f, 0.12635532021522522f, -0.05693197250366211f, -0.17307661473751068f, -0.06503012031316757f, 
		0.05030315741896629f, 0.07877636700868607f, 0.017774298787117004f, -0.17813242971897125f, 0.10786819458007812f, 
		0.09070262312889099f, 0.02952718548476696f, 0.09665663540363312f, -0.03390107303857803f, 0.03036377765238285f, 
		0.01802874356508255f, 0.059657931327819824f, 0.09258198738098145f, -0.049211323261260986f, 0.11352574825286865f, 
		-0.12938223779201508f, 0.13320624828338623f, -0.03276710584759712f, -0.17828860878944397f, -0.12878115475177765f, 
		0.044698964804410934f, -0.048830803483724594f, 0.15415780246257782f, 0.04319324716925621f, 0.1118072047829628f, 
		0.17505665123462677f, 0.017534751445055008f, -0.0901448130607605f, 0.020581934601068497f, 0.17584389448165894f, 
		0.0489494726061821f, -0.06256870925426483f, 0.0734390839934349f, -0.005220536608248949f, 0.16373589634895325f, 
		-0.07914545387029648f, -0.10845541208982468f, 0.13258232176303864f, 0.21272805333137512f, 0.10500852763652802f, 
		-0.011719702742993832f, 0.008200577460229397f, 0.03651658445596695f, -0.15622352063655853f, -0.0884988084435463f, 
		-0.09424695372581482f, -0.028558334335684776f, -0.04614822566509247f, 0.17380332946777344f, 0.049535732716321945f, 
		-0.13755232095718384f, 0.008832663297653198f, 0.15723516047000885f, 0.045843057334423065f, 0.05587761849164963f, 
		-0.09990019351243973f, 0.23057790100574493f, -0.13346554338932037f, 0.04799192026257515f, 0.006322500761598349f, 
		-0.07999662309885025f, -0.03316742554306984f, -0.022805921733379364f, -0.1215733140707016f, 0.03608893230557442f, 
		-0.17235900461673737f, -0.16439609229564667f, -0.1647690385580063f, -0.021389322355389595f, -0.02740931697189808f, 
		0.07526888698339462f, -0.03490934148430824f, 0.16658645868301392f, -0.17355482280254364f, -0.11034657061100006f, 
		0.007730389479547739f, 0.1920933723449707f, 0.09877338260412216f, -0.12235940247774124f, 0.16629558801651f, 
		0.07620269805192947f, 0.05406902730464935f, 0.10806366801261902f, 0.035766806453466415f, 0.1481221467256546f, 
		-0.07891137897968292f, -0.12807849049568176f, 0.07104269415140152f, 0.14700110256671906f, 0.018403880298137665f, 
		0.0031141205690801144f, 0.005162009969353676f, -0.063088059425354f, -0.15223002433776855f, 0.08187194913625717f, 
		-0.09185431897640228f, -0.17339912056922913f, 0.17522858083248138f, 0.09019887447357178f, 0.014426291920244694f, 
		0.07411061227321625f, -0.1548141986131668f, 0.033768486231565475f, 0.08071228861808777f, -0.1375485509634018f, 
		0.06783165037631989f, 0.06761923432350159f, 0.07135577499866486f, -0.12843342125415802f, -0.052865125238895416f, 
		0.0717056542634964f, 0.011396060697734356f, -0.06311199814081192f, 0.060071468353271484f, -0.047456804662942886f, 
		-0.006682685576379299f, -0.12812714278697968f, -0.07356321066617966f, -0.15589562058448792f, 0.04507015645503998f, 
		-0.14705875515937805f, 0.018445784226059914f, 0.16302023828029633f, 0.025504108518362045f, -0.09917793422937393f, 
		-0.16641932725906372f, 0.035857588052749634f, 0.03012312762439251f, -0.06716901063919067f, 0.0988369733095169f, 
		0.094161756336689f, 0.033514488488435745f, -0.057363420724868774f, -0.10050611197948456f, -0.01324665267020464f, 
		-0.1531214714050293f, -0.013396673835814f, -0.0027814663480967283f, 0.034938085824251175f, 0.0804959163069725f, 
		-0.16110098361968994f, -0.15065622329711914f, 0.0030937681440263987f, 0.0932711511850357f, 0.019056115299463272f, 
		0.042658641934394836f, 0.143523707985878f, -0.11026621609926224f, 0.15165682137012482f, -0.02192954532802105f, 
		-0.07253050804138184f, -0.10442999005317688f, 0.11728838086128235f, -0.046675242483615875f, -0.05884517729282379f, 
		-0.23207789659500122f, 0.11315296590328217f, 0.04073650762438774f, 0.07661032676696777f, -0.05750253424048424f, 
		-0.08382732421159744f, 0.09348302334547043f, -0.04808364063501358f, -0.174338236451149f, 0.11449219286441803f, 
		-0.10566575080156326f, 0.13612689077854156f, 0.054470572620630264f, -0.018846536055207253f, 0.007773071527481079f, 
		0.10675684362649918f, 0.051843468099832535f, -0.1310766339302063f, 0.1215115636587143f, -0.12843075394630432f, 
		0.06629796326160431f, -0.12705671787261963f, 0.20041394233703613f, 0.15416032075881958f, 0.04368854686617851f, 
		-0.0726013258099556f, 0.052740428596735f, 0.14762702584266663f, 0.008703852072358131f, -0.05442541837692261f, 
		-0.1616659313440323f, -0.15482275187969208f, -0.028138719499111176f, -0.0937163233757019f, -0.07029024511575699f, 
		-0.0204082690179348f, -0.009507104754447937f, -0.21078157424926758f, -0.057579729706048965f, -0.08351125568151474f, 
		0.08454373478889465f, -0.04258303344249725f, 0.0888938456773758f, -0.10117901116609573f, -0.12360413372516632f, 
		-0.0015481485752388835f, -0.23187050223350525f, 0.05904718115925789f, -0.08793236315250397f, -0.1763979196548462f, 
		0.07679982483386993f, 0.069209024310112f, 0.17202229797840118f, 0.004414844326674938f, 0.1309603601694107f, 
		0.11087685078382492f, 0.12844377756118774f, 0.05922742560505867f, -0.2937878370285034f, -0.05196768045425415f, 
		-0.13462643325328827f, -0.15782351791858673f, 0.0012735000345855951f, 0.07628839462995529f, 0.16214755177497864f, 
		-0.03656645864248276f, -0.12598466873168945f, -0.06046312674880028f, 0.041431866586208344f, -0.09274911135435104f, 
		0.13232384622097015f, -0.14233635365962982f, 0.16499119997024536f, 0.007853974588215351f, 0.053540170192718506f, 
		-0.1987277716398239f, -0.017693214118480682f, -0.1404373198747635f, 0.08777137845754623f, -0.011758802458643913f, 
		-0.07457616925239563f, -0.0771036297082901f, -0.11108167469501495f, 0.07283904403448105f, 0.15384559333324432f, 
		-0.008087381720542908f, 0.12352944165468216f, 0.06389337033033371f, 0.05725300684571266f, -0.04157216474413872f, 
		-0.10973291099071503f, 0.14150892198085785f, 0.13000096380710602f, -0.11172805726528168f, -0.1243918314576149f, 
		-0.0030091917142271996f, 0.15095826983451843f, -0.04256080836057663f, 0.02428148128092289f, 0.1402616798877716f, 
		0.04231834039092064f, 0.13582569360733032f, 0.18986743688583374f, 0.1226651668548584f, -0.13723331689834595f, 
		0.09244158864021301f, -0.06950811296701431f, 0.16742049157619476f, 0.037911005318164825f, 0.06725654006004333f, 
		0.038037315011024475f, 0.004306966904550791f, -0.10878313332796097f, 0.12058642506599426f, 0.00765334814786911f, 
		-0.05000198632478714f, 0.1678657829761505f, -0.056814417243003845f, -0.2763926684856415f, -0.1917646825313568f, 
		-0.03901977092027664f, -0.100938580930233f, -0.030933529138565063f, -0.13410599529743195f, -0.09356170147657394f, 
		-0.006720745004713535f, 0.16652895510196686f, 0.08110371232032776f, -0.030263349413871765f, -0.09596481174230576f, 
		-0.01778469793498516f, -0.07527851313352585f, 0.11586073786020279f, -0.020586395636200905f, -0.023820169270038605f, 
		-0.12228979170322418f, 0.14784862101078033f, 0.04077881574630737f, -0.08262396603822708f, 0.06847115606069565f, 
		-0.19607602059841156f, 0.09689470380544662f, 0.11461074650287628f, 0.17379361391067505f, -0.006808559875935316f, 
		0.04431988671422005f, -0.11824791133403778f, -0.28441646695137024f, 0.07582180202007294f, -0.09659073501825333f, 
		-0.0038346124347299337f, 0.06179513409733772f, 0.03308269381523132f, 0.0006830734782852232f, -0.03662140294909477f, 
		-0.1733398586511612f, -0.045990776270627975f, -0.05243579298257828f, 0.01757405512034893f, 0.1280442774295807f, 
		0.014521871693432331f, -0.14458461105823517f, -0.08043308556079865f, -0.0029611384961754084f, -0.17737555503845215f, 
		-0.10219255089759827f, 0.14230398833751678f, 0.03137398883700371f, 0.011735538952052593f, -0.05251939222216606f, 
		0.1703667789697647f, 0.052704907953739166f, -0.11310197412967682f, -0.0728369876742363f, 0.07212918996810913f, 
		-0.14625315368175507f, 0.126652330160141f, 0.048328597098588943f, -0.12033914029598236f, 0.09986676275730133f, 
		0.1385936588048935f, -0.11277312785387039f, -0.08673369884490967f, 0.07885927706956863f, -0.009434661827981472f, 
		-0.07688873261213303f, -0.09873291850090027f, -0.05255656689405441f, 0.017348842695355415f, 0.013730202801525593f, 
		-0.11028736084699631f, 0.16528896987438202f, 0.05398218333721161f, 0.10056418925523758f, 0.11977002024650574f, 
		-0.0880049392580986f, 0.11881913989782333f, 0.014243073761463165f, -0.029885893687605858f, 0.13976384699344635f, 
		-0.1523844599723816f, -0.1423686146736145f, -0.048652347177267075f, -0.13843096792697906f, 0.09446702152490616f, 
		-0.052262455224990845f, 0.18062317371368408f, -0.15228816866874695f, -0.10482721775770187f, 0.05165968835353851f, 
		0.11903714388608932f, -0.1227821484208107f, 0.1496635526418686f, 0.14785023033618927f, -0.012048685923218727f, 
		-0.08914699405431747f, -0.10692727565765381f, -0.15783943235874176f, 0.06414759904146194f, 0.0737980529665947f, 
		-0.018318600952625275f, 0.028028246015310287f, -0.2849026024341583f, 0.03741589933633804f, 0.022403953596949577f, 
		0.05415325611829758f, -0.09524966776371002f, -0.11528320610523224f, 0.02596188150346279f, 0.11027355492115021f, 
		0.15544041991233826f, 0.13312073051929474f, 0.09478810429573059f, -0.112703837454319f, 0.06595478951931f, 
		-0.04998726025223732f, 0.11636753380298615f, -0.16201698780059814f, 0.011114267632365227f, -0.22213062644004822f, 
		-0.0832141786813736f, -0.08574116975069046f, 0.16354016959667206f, 0.04769911617040634f, -0.15750683844089508f, 
		0.022256426513195038f, -0.08982473611831665f, 0.11388345807790756f, 0.08494728058576584f, -0.01989498734474182f, 
		-0.21689724922180176f, 0.16993215680122375f, -0.1741497963666916f, 0.061184365302324295f, 0.08048336207866669f, 
		-0.10778162628412247f, -0.062079738825559616f, -0.11391434818506241f, 0.007827941328287125f, -0.042096637189388275f, 
		0.01961953192949295f, -0.007123467046767473f, 0.050323572009801865f, -0.011904310435056686f, 0.1348307728767395f, 
		0.008247656747698784f, 0.07977958768606186f, -0.07155346125364304f, -0.16599616408348083f, 0.05545199662446976f, 
		-0.05663740262389183f, 0.06931556016206741f, 0.11046866327524185f, 0.0818309336900711f, -0.18112196028232574f, 
		-0.11141972988843918f, 0.01891525648534298f, -0.16296790540218353f, 0.09950016438961029f, -0.14382041990756989f, 
		-0.02088293805718422f, 0.02901848778128624f, 0.09855525195598602f, -0.07679545879364014f, 0.018249984830617905f, 
		0.0025441357865929604f, 0.09978044778108597f, 0.07477378100156784f, -0.01624435931444168f, -0.045870475471019745f, 
		-0.15697075426578522f, -0.10973448306322098f, -0.07079403847455978f, 0.15432089567184448f, 0.06439687311649323f, 
		0.15617798268795013f, 0.2118033468723297f, 0.12986405193805695f, -0.1677539199590683f, -0.12727364897727966f, 
		0.06682275235652924f, 0.16365039348602295f, 0.033040232956409454f, 0.05840536952018738f, 0.06139988452196121f, 
		-0.12675805389881134f, -0.016484608873724937f, -0.07828580588102341f, -0.0761561319231987f, 0.054902415722608566f, 
		0.17235812544822693f, 0.08332931995391846f, -0.1282476782798767f, -0.007019969634711742f, -0.0621393546462059f, 
		-0.1346466988325119f, -0.13164585828781128f, -0.09577644616365433f, 0.22924406826496124f, 0.0957232192158699f, 
		-0.16916914284229279f, -0.006570810917764902f, 0.015799960121512413f, -0.15602810680866241f, -0.1532745510339737f, 
		0.05194055289030075f, -0.06744713336229324f, -0.09987102448940277f, -0.01639082096517086f, -0.10948526859283447f, 
		-0.14002352952957153f, -0.1545184850692749f, -0.1029687151312828f, -0.005581502802670002f, 0.0890415757894516f, 
		0.05675052851438522f, -0.14765195548534393f, -0.1444496214389801f, 0.1708299219608307f, 0.07853832095861435f, 
		-0.07390280812978745f, 0.08097779005765915f, -0.08917052298784256f, -0.12077207118272781f, 0.06141899153590202f, 
		0.01782109960913658f, -0.04765634983778f, 0.03686768561601639f, 0.1541794389486313f, 0.14073868095874786f, 
		-0.16061893105506897f, 0.13215237855911255f, 0.047465331852436066f, 0.011270726099610329f, -0.03899458795785904f, 
		-0.09961491078138351f, -0.042404837906360626f, -0.005447416100651026f, 0.0584954135119915f, -0.09249722212553024f, 
		-0.10495544970035553f, -0.0770343616604805f, -0.021324696019291878f, -0.054811276495456696f, 0.009963778778910637f, 
		-0.0019253980135545135f, 0.06794077903032303f, -0.14938797056674957f, -0.049033377319574356f, -0.1551569700241089f, 
		0.11540012806653976f, 0.029293248429894447f, 0.1340717226266861f, -0.10143514722585678f, 0.13643459975719452f, 
		0.1600467413663864f, 0.06874854862689972f, -0.0978827178478241f, 0.10519620776176453f, -0.040956221520900726f, 
		0.04620995745062828f, 0.01653050258755684f, -0.024915074929594994f, -0.10975782573223114f, -0.12865546345710754f, 
		-0.1291465312242508f, 0.1768111288547516f, -0.12454144656658173f, 0.038046542555093765f, 0.01216160785406828f, 
		0.15149034559726715f, 0.07744133472442627f, -0.11353358626365662f, 0.12262273579835892f, 0.18363940715789795f, 
		-0.02705611288547516f, 0.10968674719333649f, 0.03129030764102936f, -0.17105011641979218f, 0.044865891337394714f, 
		-0.11718473583459854f, 0.07780531048774719f, 0.030445974320173264f, -0.12633660435676575f, -0.04758015647530556f, 
		0.062400322407484055f, -0.1293400675058365f, 0.0590132512152195f, 0.12357310205698013f, -0.062088556587696075f, 
		-0.16033440828323364f, 0.06067481264472008f, 0.13691923022270203f, 0.2684177756309509f, -0.15295381844043732f, 
		0.11023527383804321f, -0.03404742479324341f, 0.06903542578220367f, 0.06313192844390869f, -0.045496828854084015f, 
		0.0411081425845623f, 0.10513848066329956f, 0.15210361778736115f, -0.16730721294879913f, -0.1567153036594391f, 
		0.00495905103161931f, -0.011752771213650703f, 0.10684248059988022f, -0.17588162422180176f, 0.1300937533378601f, 
		-0.10592059791088104f, -0.09615681320428848f, -0.08294358104467392f, 0.06487835943698883f, 0.09329631179571152f, 
		0.0019223421113565564f, 0.06754575669765472f, 0.2072429060935974f, -0.08935874700546265f, 0.1281096190214157f, 
		-0.09746908396482468f, 0.20461924374103546f, -0.11094409227371216f, -0.013937119394540787f, -0.07969368249177933f, 
		-0.011032898910343647f, 0.1450505256652832f, 0.12833566963672638f, 0.12399003654718399f, 0.13136394321918488f, 
		-0.12871208786964417f, -0.07597646862268448f, 0.11424950510263443f, -0.13116653263568878f, 0.19740745425224304f, 
		0.11055812984704971f, 0.009497907012701035f, 0.06748810410499573f, -0.15796887874603271f, -0.15158711373806f, 
		-0.08310269564390182f, 0.12701335549354553f, 0.08723671734333038f, 0.01781260035932064f, -0.010255284607410431f, 
		0.03171252831816673f, 0.04619014263153076f, 0.14811518788337708f, 0.06432212889194489f, -0.06436997652053833f, 
		0.10557721555233002f, -0.08848577737808228f, 0.08944036811590195f, 0.1622360646724701f, -0.04116731509566307f, 
		-0.04016995057463646f, -0.11312003433704376f, -0.058190345764160156f, -0.06654701381921768f, -0.04541778191924095f, 
		0.15817570686340332f, -0.02185598760843277f, 0.06700355559587479f, 0.02610531449317932f, -0.13468916714191437f, 
		0.026632850989699364f, -0.19481812417507172f, -0.16695228219032288f, -0.13230711221694946f, -0.08296088874340057f, 
		0.07461105287075043f, -0.07914342731237411f, 0.016893213614821434f, -0.19101525843143463f, -0.10240549594163895f, 
		-0.051547080278396606f, -0.051474589854478836f, -0.10197301208972931f, 0.10948710888624191f, -0.0057613905519247055f, 
		-0.09685752540826797f, -0.005649372469633818f, -0.030597323551774025f, -0.036007631570100784f, -0.07438834011554718f, 
		-0.09029382467269897f, 0.00730742234736681f, -0.14021416008472443f, -0.05733508616685867f, -0.09047766029834747f, 
		0.0982571616768837f, -0.15567228198051453f, 0.09200718253850937f, -0.032201625406742096f, -0.10636357218027115f, 
		0.19740737974643707f, -0.18516068160533905f, 0.15012794733047485f, -0.02884969487786293f, -0.03682184964418411f, 
		-0.0473390631377697f, -0.1568939983844757f, -0.17140063643455505f, -0.026463957503437996f, 0.12952323257923126f, 
		-0.13365085422992706f, 0.08600493520498276f, -0.12612400949001312f, -0.059638138860464096f, -0.1550082564353943f, 
		-0.1660921424627304f, -0.09759054332971573f, 0.015041672624647617f, 0.13154517114162445f, 0.08573701232671738f, 
		0.026366930454969406f, 0.06916220486164093f, 0.14140018820762634f, -0.05782670900225639f, -0.05114453285932541f, 
		0.0628710612654686f, 0.024614756926894188f, 0.12765014171600342f, -0.023446030914783478f, -0.11604303866624832f, 
		0.1647578328847885f, -0.13206276297569275f, -0.17249996960163116f, -0.1283806413412094f, 0.04060472548007965f, 
		0.0880114808678627f, -0.05730082839727402f, 0.004219555761665106f, 0.13027805089950562f, 0.11194367706775665f, 
		0.1614837646484375f, -0.11522896587848663f, 0.19317328929901123f, -0.06226198747754097f, -0.08062116801738739f, 
		0.059464581310749054f, -0.18335644900798798f, 0.02805640548467636f, -0.11749876290559769f, -0.06420134007930756f, 
		0.16328777372837067f, 0.09444276988506317f, -0.15101805329322815f, -0.20309746265411377f, 0.01338566280901432f, 
		-0.13923580944538116f, -0.0776863768696785f, 0.12166848033666611f, -0.10681048780679703f, -0.09270858764648438f, 
		0.05797625705599785f, -0.0006186158861964941f, 0.2060634046792984f, -0.12826892733573914f, 0.05254744365811348f, 
		0.028392881155014038f, 0.04654756560921669f, -0.1031983494758606f, -0.17018553614616394f, -0.1358817219734192f, 
		0.03726968169212341f, 0.17165450751781464f, -0.11340966820716858f, -0.06237567588686943f, -0.13459895551204681f, 
		-0.14966174960136414f, -0.03003617376089096f, 0.09529011696577072f, 0.005803202278912067f, -0.02519165724515915f, 
		-0.06220053508877754f, 0.05265180394053459f, 0.13386838138103485f, 0.0014236160786822438f, 0.13955378532409668f, 
		0.012391594238579273f, 0.07824556529521942f, 0.048015445470809937f, 0.08849717676639557f, 0.14741797745227814f, 
		-0.15853245556354523f, -0.024745620787143707f, -0.07057760655879974f, 0.08620630949735641f, 0.14629438519477844f, 
		0.05124371498823166f, -0.04277290403842926f, 0.04636761173605919f, -0.025917859748005867f, 0.1338708996772766f, 
		0.06499136239290237f, 0.018329860642552376f, -0.11017856001853943f, -0.14649488031864166f, -0.014643087051808834f, 
		-0.14757779240608215f, 0.05523451417684555f, 0.0391126349568367f, -0.014708051458001137f, 0.00027733572642318904f, 
		-0.042122576385736465f, 0.07598165422677994f, 0.07269600033760071f, 0.12036781013011932f, -0.2054111808538437f, 
		-0.09539785981178284f, -0.14961662888526917f, -0.06796260178089142f, -0.10083074867725372f, 0.011411267332732677f, 
		0.06620796769857407f, -0.029469791799783707f, 0.14989620447158813f, 0.007358821574598551f, -0.0034468104131519794f, 
		-0.11433825641870499f, -0.018484104424715042f, -0.11841338127851486f, -0.1252472847700119f, 0.12403848767280579f, 
		-0.11190097033977509f, -0.13582929968833923f, 0.15113788843154907f, 0.16842767596244812f, 0.10521958023309708f, 
		0.10940519720315933f, 0.04618290811777115f, -0.18316864967346191f, -0.011585737578570843f, 0.04503140226006508f, 
		0.02446587383747101f, -0.022337336093187332f, 0.13688568770885468f, 0.08454412966966629f, -0.07819157838821411f, 
		-0.04610505700111389f, -0.00686646718531847f, -0.18279071152210236f, -0.13695454597473145f, 0.12660889327526093f, 
		0.12535351514816284f, 0.030217817053198814f, -0.05849349498748779f, 0.12370327115058899f, -0.1433875411748886f, 
		-0.028745271265506744f, 0.1644958257675171f, -0.03551562502980232f, -0.07651662081480026f, 0.16322843730449677f, 
		0.13189582526683807f, 0.07196217775344849f, -0.08427456766366959f, 0.029515378177165985f, 0.06010269373655319f, 
		0.11442530900239944f, -0.165981724858284f, -0.0503900907933712f, -0.11829258501529694f, -0.07154566049575806f, 
		-0.04727575182914734f, 0.004938401747494936f, 0.12491168826818466f, -0.03682270646095276f, 0.16783465445041656f, 
		0.13612234592437744f, 0.15013574063777924f, 0.02388235181570053f, -0.19280770421028137f, 0.07085415720939636f, 
		-0.16751039028167725f, -0.12696225941181183f, -0.07405394315719604f, -0.031091371551156044f, 0.007756869308650494f, 
		-0.15277688205242157f, -0.12864048779010773f, 0.13958890736103058f, 0.016599712893366814f, -0.16627247631549835f, 
		-0.10758320987224579f, 0.13247105479240417f, -0.20850905776023865f, -0.07785332202911377f, -0.024621253833174706f, 
		0.08229032903909683f, -0.11306214332580566f, -0.128060445189476f, -0.1458992213010788f, -0.13120658695697784f, 
		0.04534925892949104f, 0.16844673454761505f, 0.017417604103684425f, -0.06738833338022232f, -0.017727235332131386f, 
		-0.15174910426139832f, -0.044451162219047546f, -0.07341311126947403f, -0.1541498303413391f, 0.12311264872550964f, 
		-0.10363111644983292f, -0.0960400328040123f, 0.15876194834709167f, -0.09722521901130676f, 0.08664609491825104f, 
		-0.17952820658683777f, -0.13582375645637512f, 0.10873304307460785f, 0.09737005084753036f, -0.08242880553007126f, 
		-0.0336623415350914f, 0.03616854548454285f, -0.11476419866085052f, -0.07830501347780228f, -0.18976706266403198f, 
		0.00849314033985138f, 0.05883454531431198f, 0.19061245024204254f, -0.12717600166797638f, -0.026146700605750084f, 
		0.036189690232276917f, 0.20327679812908173f, -0.015810076147317886f, -0.18391720950603485f, -0.15200629830360413f, 
		-0.12916797399520874f, 0.011462575756013393f, -0.01537330076098442f, -0.20449911057949066f, -0.14935562014579773f, 
		0.0885632261633873f, -0.15930449962615967f, -0.04076189920306206f, -0.19741757214069366f, -0.08820629864931107f, 
		0.0808941125869751f, -0.09323982894420624f, -0.12458349764347076f, -0.11788943409919739f, 0.1610012650489807f, 
		0.07104339450597763f, -0.0986759290099144f, 0.08155543357133865f, 0.03798097372055054f, 0.15365241467952728f, 
		0.09384826570749283f, 0.0924798846244812f, -0.06304595619440079f, -0.16027583181858063f, 0.09431903064250946f, 
		0.08335280418395996f, 0.06211145222187042f, 0.12103172391653061f, 0.031299132853746414f, 0.10916736721992493f, 
		-0.12101244181394577f, -0.12082086503505707f, 0.06914184987545013f, 0.22416307032108307f, -0.10361005365848541f, 
		-0.17520259320735931f, 0.12237568199634552f, -0.03247637301683426f, -0.15903310477733612f, -0.09268531203269958f, 
		-0.1261037290096283f, 0.13801805675029755f, 0.06085699424147606f, -0.09443921595811844f, -0.01425456628203392f, 
		0.004230369348078966f, -0.043628543615341187f, -0.10663311183452606f, -0.0461350753903389f, -0.10028080642223358f, 
		0.17345976829528809f, 0.03792450204491615f, -0.1167333647608757f, -0.1612212061882019f, 0.158433198928833f, 
		0.2132553607225418f, 0.060457743704319f, -0.17486277222633362f, -0.16028271615505219f, -0.12580129504203796f, 
		0.01846921816468239f, -0.1856377124786377f, -0.16355018317699432f, 0.18322934210300446f, 0.03643282130360603f, 
		0.17906883358955383f, -0.12085259705781937f, 0.07932125777006149f, -0.03075292520225048f, -0.02745378203690052f, 
		-0.0868028774857521f, -0.12508732080459595f, -0.12477372586727142f, -0.016335632652044296f, 0.03909778967499733f, 
		-0.08092186599969864f, 0.06423858553171158f, -0.007022252772003412f, -0.10450282692909241f, 0.0260310061275959f, 
		0.24937959015369415f, -0.10029531270265579f, -0.06617241352796555f, 0.20071864128112793f, 0.02736363559961319f, 
		-0.016800500452518463f, 0.11134642362594604f, -0.14620015025138855f, -0.10338339954614639f, 0.1434815526008606f, 
		-0.045324742794036865f, -0.014522487297654152f, -0.10406690090894699f, 0.011785775423049927f, 0.1335989087820053f, 
		0.12970495223999023f, -0.16333989799022675f, 0.06530041247606277f, 0.06699914485216141f, -0.11386033147573471f, 
		0.15678080916404724f, 0.16672267019748688f, 0.14338107407093048f, 0.0082344189286232f, -0.08190400898456573f, 
		-0.15794353187084198f, 0.07056406885385513f, 0.030167467892169952f, 0.013760466128587723f, 0.08707202970981598f, 
		0.06870082020759583f, 0.021139182150363922f, -0.2232995629310608f, 0.007901191711425781f, 0.014990427531301975f, 
		-0.036981623619794846f, 0.16330917179584503f, 0.04559296742081642f, -0.14870402216911316f, -0.056938979774713516f, 
		0.12856216728687286f, -0.026924801990389824f, -0.1890036016702652f, -0.059503499418497086f, 0.16132524609565735f, 
		0.0944080725312233f, -0.02534092217683792f, 0.08246108144521713f, -0.12149503827095032f, -0.004109652247279882f, 
		0.07413794100284576f, -0.0847310721874237f, 0.11405841261148453f, 0.05769997090101242f, 0.06901679188013077f, 
		0.0706537514925003f, 0.18894866108894348f, 0.09866016358137131f, 0.06983227282762527f, -0.1504281461238861f, 
		-0.13420233130455017f, -0.1272934228181839f, -0.0958404466509819f, -0.15611696243286133f, -0.06447720527648926f, 
		0.09384790062904358f, -0.06525230407714844f, 0.10235358774662018f, 0.14190079271793365f, -0.0909365862607956f, 
		-0.16460630297660828f, -0.11083324253559113f, -0.09075901657342911f, 0.07879278808832169f, 0.11341103166341782f, 
		-0.1681826412677765f, 0.06299903243780136f, -0.103510282933712f, 0.05509529635310173f, 0.011110896244645119f, 
		-0.0839998722076416f, 0.14553549885749817f, 0.13185985386371613f, 0.16333778202533722f, 0.029531700536608696f, 
		-0.14983029663562775f, 0.07299911230802536f, 0.1036231741309166f, -0.19531086087226868f, -0.22445493936538696f, 
		-0.13832426071166992f, -0.09311312437057495f, 0.24043530225753784f, -0.02994249202311039f, -0.13918069005012512f, 
		-0.005075628403574228f, 0.05405363813042641f, 0.18045267462730408f, 0.08459094911813736f, 0.039589330554008484f, 
		-0.043411675840616226f, -0.10657631605863571f, -0.018074646592140198f, -0.05066174641251564f, 0.09544350206851959f, 
		-0.10240676254034042f, 0.00018117440049536526f, -0.10127688199281693f, 0.12874378263950348f, -0.04211365804076195f, 
		-0.1499268263578415f, 0.0790185034275055f, 0.12190273404121399f, 0.018312904983758926f, 0.20752109587192535f, 
		0.23513945937156677f, 0.15562397241592407f, 0.05538558587431908f, -0.021364890038967133f, 0.10055753588676453f, 
		-0.0667932853102684f, -0.07221908122301102f, 0.12824763357639313f, -0.07667655497789383f, 0.07465972751379013f, 
		-0.005888174753636122f, 0.006156264338642359f, -0.1302110105752945f, -0.09551124274730682f, 0.15881969034671783f, 
		-0.0020981000270694494f, -0.04422010853886604f, 0.013300267048180103f, -0.134678915143013f, 0.0030085977632552385f, 
		-0.04494056478142738f, 0.16957996785640717f, 0.15329162776470184f, -0.15329672396183014f, -0.019878901541233063f, 
		-0.2050761878490448f, 0.05154496431350708f, -0.06698863208293915f, -0.007811726536601782f, -0.0709846243262291f, 
		0.01065089087933302f, -0.06269162148237228f, -0.1508505493402481f, 0.1715649515390396f, -0.05905486270785332f, 
		-0.1251278668642044f, -0.051956430077552795f, 0.15301716327667236f, 0.0950462743639946f, 0.11244501918554306f, 
		-0.057628437876701355f, 0.16679246723651886f, -0.1725212037563324f, 0.14168858528137207f, 0.09024090319871902f, 
		0.05582902580499649f, 0.15823735296726227f, -0.10345907509326935f, -0.0332091823220253f, -0.10574645549058914f, 
		-0.00314456969499588f, -0.16260766983032227f, -0.13062512874603271f, -0.12653955817222595f, 0.11370093375444412f, 
		0.12777158617973328f, -0.00308399461209774f, -0.12180832773447037f, -0.13834798336029053f, -0.1077779233455658f, 
		0.006066036410629749f, 0.1646912693977356f, -0.1915939897298813f, 0.01122308149933815f, -0.1511872261762619f, 
		-0.046977825462818146f, 0.06016116961836815f, -0.05527942627668381f, 0.032060131430625916f, 0.022730493918061256f, 
		-0.13235649466514587f, -0.09553859382867813f, 0.08671148866415024f, -0.3022679388523102f, 0.15669766068458557f, 
		-0.16761305928230286f, -0.000917838595341891f, -0.024146970361471176f, 0.16349385678768158f, -0.1701303869485855f, 
		0.14423172175884247f, 0.15145525336265564f, 0.0837240144610405f, 0.061078835278749466f, 0.14135286211967468f, 
		-0.06926115602254868f, -0.15529876947402954f, -0.11603014171123505f, -0.005394884385168552f, 0.17106887698173523f, 
		-0.027685558423399925f, -0.12083325535058975f, 0.03305932879447937f, -0.17895761132240295f, -0.04668230190873146f, 
		-0.14632445573806763f, 0.12096087634563446f, 0.09606558084487915f, -0.055406175553798676f, -0.017733557149767876f, 
		-0.062375713139772415f, -0.12378615885972977f, -0.029590275138616562f, -0.14941003918647766f, -0.10343840718269348f, 
		-0.08475826680660248f, 0.17335133254528046f, 0.025828436017036438f, -0.1274269074201584f, 0.17574438452720642f, 
		0.004336318001151085f, 0.15013368427753448f, -0.11653120815753937f, 0.1208949163556099f, 0.025874147191643715f, 
		-0.03778418153524399f, -0.06107788160443306f, 0.07992994785308838f, 0.004210661631077528f, -0.1212875097990036f, 
		-0.0275273434817791f, -0.011706692166626453f, -0.1287103146314621f, -0.017826147377490997f, 0.01862286403775215f, 
		-0.07275376468896866f, -0.07823770493268967f, 0.01657279208302498f, -0.11417128145694733f, 0.06680800765752792f, 
		-0.013092616572976112f, -0.06723616272211075f, -0.09046196192502975f, 0.16609519720077515f, 0.002168265637010336f, 
		-0.0529056116938591f, -0.028546486049890518f, 0.02144191972911358f, 0.06526604294776917f, -0.18987852334976196f, 
		0.14422360062599182f, -0.2337578982114792f, -0.06908949464559555f, -0.057428453117609024f, 0.20244143903255463f, 
		-0.15488383173942566f, 0.12883836030960083f, -0.11577746272087097f, -0.10807394981384277f, -0.07342514395713806f, 
		0.06259696930646896f, 0.12154176086187363f, 0.09344112873077393f, 0.10867739468812943f, -0.057753413915634155f, 
		0.15983152389526367f, -0.05695677176117897f, -0.04990088939666748f, -0.17378178238868713f, 0.15193083882331848f, 
		0.12863335013389587f, -0.01733008772134781f, -0.058230508118867874f, -0.11652104556560516f, -0.012314719147980213f, 
		0.08462654799222946f, 0.02711528167128563f, -0.18167002499103546f, -0.04856587201356888f, 0.20945438742637634f, 
		-0.04813184216618538f, 0.0730130672454834f, -0.1449957638978958f, -0.06781027466058731f, 0.0927947461605072f, 
		-0.013754328712821007f, -0.14950136840343475f, 0.024469643831253052f, -0.050429921597242355f, -0.08747299015522003f, 
		-0.1277550458908081f, -0.006689086090773344f, -0.045332036912441254f, -0.16096153855323792f, 0.05898509547114372f, 
		0.16992837190628052f, 0.07349536567926407f, -0.007234838325530291f, -0.02587166242301464f, 0.020646093413233757f, 
		0.13925597071647644f, -0.06421677023172379f, 0.10422392189502716f, -0.16349156200885773f, 0.017482975497841835f, 
		-0.0997462123632431f, -0.062204111367464066f, -0.09652718901634216f, -0.1500547081232071f, 0.09606924653053284f, 
		-0.08770176023244858f, -0.10783086717128754f, -0.043687451630830765f, -0.2538509666919708f, -0.10342390090227127f, 
		-0.15856201946735382f, 0.04872787371277809f, 0.12092389911413193f, -0.11902011930942535f, 0.10632884502410889f, 
		0.07721506804227829f, 0.055399440228939056f, -0.06877468526363373f, -0.06055640056729317f, -0.04479813948273659f, 
		0.15899860858917236f, -0.013671218417584896f, 0.03237961605191231f, -0.18276357650756836f, -0.05938807502388954f, 
		0.12716296315193176f, -0.10878728330135345f, -0.05773841589689255f, -0.03837738186120987f, -0.04400667920708656f, 
		-0.12390162795782089f, -0.10722217708826065f, 0.003862623358145356f, 0.09036356210708618f, 0.032244835048913956f, 
		-0.11438099294900894f, 0.019877320155501366f, -0.11830276995897293f, -0.12315480411052704f, 0.07407593727111816f, 
		-0.08879385143518448f, 0.0157619621604681f, -0.0004885911475867033f, -0.08845332264900208f, -0.11924643814563751f, 
		-0.14177919924259186f, 0.17225301265716553f, -0.06004012003540993f, -0.0008843718096613884f, 0.0550091378390789f, 
		0.07012874633073807f, 0.011360319331288338f, -0.01110053900629282f, 0.10463200509548187f, 0.006523814983665943f, 
		0.1396179497241974f, 0.14867199957370758f, 0.07261253148317337f, -0.14916497468948364f, 0.05105995014309883f, 
		-0.07989497482776642f, -0.026646196842193604f, 0.12766171991825104f, 0.16796742379665375f, -0.08285210281610489f, 
		-0.062034983187913895f, -0.002576639410108328f, 0.13115032017230988f, 0.13286612927913666f, -0.15928420424461365f, 
		-0.016316920518875122f, 0.1400178074836731f, -0.1804373562335968f, -0.046639151871204376f, -0.06270705163478851f, 
		0.147629514336586f, -0.1553686559200287f, -0.07350203394889832f, 0.03240074962377548f, 0.040340591222047806f, 
		-0.1308831423521042f, 0.0509638749063015f, 0.00020610238425433636f, 0.0026997600216418505f, 0.11253246665000916f, 
		0.08745289593935013f, -0.08320876210927963f, 0.011214078404009342f, 0.14699463546276093f, -0.19295121729373932f, 
		-0.17068028450012207f, -0.05321197584271431f, 0.024203212931752205f, -0.15212631225585938f, 0.10328487306833267f, 
		-0.1668110489845276f, -0.10413200408220291f, -0.026278184726834297f, -0.09070359915494919f, -0.1140606626868248f, 
		0.08634692430496216f, 0.09065066277980804f, -0.02671402134001255f, -0.13663114607334137f, 0.013451850973069668f, 
		0.25076696276664734f, 0.09209634363651276f, 0.1816735416650772f, -0.07481447607278824f, 0.11995362490415573f, 
		-0.12085632979869843f, 0.12926597893238068f, 0.08003775030374527f, -0.008072500117123127f, -0.05917717516422272f, 
		0.06411534547805786f, 0.1087564006447792f, 0.15218673646450043f, 0.1229998841881752f, -0.03151180222630501f, 
		-0.04252467304468155f, -0.09845653176307678f, 0.1276678591966629f, -0.09204818308353424f, -0.04448091238737106f, 
		0.015983179211616516f, 0.17027904093265533f, -0.12940719723701477f, -0.07931877672672272f, 0.15099719166755676f, 
		0.048551201820373535f, -0.15428011119365692f, 0.09953487664461136f, -0.1333269327878952f, -0.23924130201339722f, 
		0.09247893840074539f, -0.06876540929079056f, -0.09415802359580994f, 0.16362442076206207f, -0.10895208269357681f, 
		0.05225405842065811f, 0.12757080793380737f, 0.06898339837789536f, 0.017812242731451988f, 0.15455083549022675f, 
		-0.05618814378976822f, -0.1428607851266861f, -0.06434939801692963f, -0.07828934490680695f, -0.020324643701314926f, 
		-0.05910026282072067f, 0.0900164246559143f, 0.08046535402536392f, 0.07585563510656357f, -0.04388246685266495f, 
		0.023836659267544746f, 0.057368237525224686f, 0.06566774845123291f, -0.014816556125879288f, 0.13932634890079498f, 
		0.06304414570331573f, 0.10303056985139847f, -0.158636674284935f, 0.05542030557990074f, 0.05999293923377991f, 
		0.14966008067131042f, -0.17888213694095612f, -0.12969283759593964f, 0.07666635513305664f, -0.15246954560279846f, 
		0.16356322169303894f, 0.08113846182823181f, 0.10579477250576019f, 0.04266791045665741f, -0.03418727591633797f, 
		-0.012814713642001152f, 0.09204825013875961f, -0.1068294569849968f, 0.13259437680244446f, 0.1439870446920395f, 
		-0.21036452054977417f, -0.1521223485469818f, -0.02344132773578167f, -0.10274386405944824f, 0.15938358008861542f, 
		-0.11979100853204727f, -0.052017636597156525f, 0.10553394258022308f, -0.026287879794836044f, 0.07440173625946045f, 
		-0.1420157104730606f, -0.12214506417512894f, 0.1388385146856308f, 0.08674398809671402f, -0.014029240235686302f, 
		0.1427728831768036f, -0.048074014484882355f, 0.12586776912212372f, -0.12372080236673355f, -0.07390639930963516f, 
		-0.13018262386322021f, -0.03674951195716858f, 0.12013497948646545f, -0.0800725668668747f, 0.09975333511829376f, 
		0.1879708617925644f, -0.15554243326187134f, -0.17469586431980133f, 0.023391427472233772f, -0.10765945166349411f, 
		0.10172878205776215f, 0.07877474278211594f, -0.04001184552907944f, -0.03741384670138359f, -0.0955578163266182f, 
		-0.10119624435901642f, -0.0059302072040736675f, 0.19431646168231964f, -0.1337834596633911f, 0.024269292131066322f, 
		-0.12193218618631363f, 0.003675391897559166f, 0.08446607738733292f, -0.17664724588394165f, -0.02801913022994995f, 
		0.022720826789736748f, -0.05458908528089523f, -0.17350177466869354f, 0.02862081490457058f, 0.016821959987282753f, 
		0.19210895895957947f, -0.02660430036485195f, -0.08347569406032562f, -0.048390328884124756f, -0.09839749336242676f, 
		-0.008781228214502335f, 0.09215150028467178f, -0.13835269212722778f, 0.10039812326431274f, 0.1868855059146881f, 
		0.1498095542192459f, -0.05140187218785286f, 0.17593584954738617f, 0.08623512834310532f, 0.008582567796111107f, 
		-0.033480204641819f, 0.14522773027420044f, -0.03292401134967804f, -0.13659721612930298f, -0.1353166252374649f, 
		-0.11341624706983566f, -0.13005438446998596f, -0.1329493224620819f, -0.0409519337117672f, 0.039956871420145035f, 
		-0.13607817888259888f, 0.03504760563373566f, 0.00964258424937725f, 0.21315903961658478f, 0.11404387652873993f, 
		-0.025941845029592514f, -0.09914692491292953f, -0.03629915043711662f, 0.15392516553401947f, 0.03210046514868736f, 
		-0.011004257015883923f, 0.1091354638338089f, 0.15103527903556824f, 0.10075230151414871f, 0.005220561288297176f, 
		0.1701369732618332f, -0.03318188712000847f, 0.0087654460221529f, -0.05012042820453644f, -0.1214972585439682f, 
		0.17086492478847504f, -0.017336513847112656f, -0.03695889934897423f, 0.15823830664157867f, -0.18916748464107513f, 
		-0.040606558322906494f, 0.08846219629049301f, -0.12214250862598419f, 0.07266922295093536f, -0.029992956668138504f, 
		0.06818413734436035f, -0.06831628829240799f, -0.1069050282239914f, -0.10240501910448074f, -0.1598695069551468f, 
		-0.1845213770866394f, 0.020050615072250366f, -0.12245425581932068f, 0.003125908551737666f, 0.10811562836170197f, 
		-0.0440586656332016f, -0.1025221198797226f, 0.07211817800998688f, 0.04127515107393265f, 0.127802312374115f, 
		0.10248975455760956f, -0.0296494048088789f, 0.14582473039627075f, -0.08462654799222946f, 0.02323843538761139f, 
		-0.19131436944007874f, 0.1388176530599594f, 0.12278055399656296f, 0.1767672300338745f, 0.11343640834093094f, 
		0.1361304223537445f, 0.1191617101430893f, 0.007496205158531666f, -0.047197334468364716f, -0.03522154316306114f, 
		0.01512411329895258f, 0.1447439044713974f, -0.05967167392373085f, -0.08537701517343521f, 0.00020753602439071983f, 
		-0.03337521851062775f, 0.011983863078057766f, -0.11434868723154068f, 0.0071806213818490505f, -0.13779151439666748f, 
		0.05305488780140877f, -0.03842398524284363f, 0.013359613716602325f, 0.05089856684207916f, -0.23354719579219818f, 
		-0.13011424243450165f, 0.059329692274332047f, -0.10432439297437668f, 0.13444042205810547f, -0.15380282700061798f, 
		-0.14435666799545288f, -0.054729338735342026f, 0.16660499572753906f, -0.01582646183669567f, 0.0829300656914711f, 
		-0.030980510637164116f, -0.1505611091852188f, -0.22378407418727875f, 0.14467303454875946f, 0.151386559009552f, 
		0.03467191383242607f, 0.15143713355064392f, -0.12702561914920807f, 0.007978993467986584f, 0.021115822717547417f, 
		0.08214692026376724f, 0.1303054690361023f, 0.08078322559595108f, -0.08706478774547577f, 0.12836460769176483f, 
		0.10686353594064713f, 0.16133293509483337f, -0.13215404748916626f, -0.05229916796088219f, -0.12076148390769958f, 
		-0.034849148243665695f, 0.08468560874462128f, -0.029557466506958008f, 0.04575890302658081f, -0.14369572699069977f, 
		-0.13753420114517212f, 0.09649011492729187f, -0.08774564415216446f, -0.08579832315444946f, -0.13955557346343994f, 
		0.10714933276176453f, 0.13621695339679718f, -0.009088495746254921f, -0.0385889895260334f, -0.0334915928542614f, 
		-0.09732365608215332f, -0.17707106471061707f, 0.119384765625f, 0.12294074892997742f, -0.05230151116847992f, 
		0.004263672046363354f, -0.1992490589618683f, 0.009285662323236465f, 0.06665065884590149f, -0.12335119396448135f, 
		0.09839294850826263f, -0.05959215387701988f, -0.11056183278560638f, 0.05184560269117355f, 0.039016518741846085f, 
		0.04646153002977371f, 0.14579977095127106f, -0.02028261125087738f, -0.03285936266183853f, 0.1184377521276474f, 
		-0.14941412210464478f, 0.07284153252840042f, -0.1710212528705597f, -0.14779417216777802f, -0.06930586695671082f, 
		-0.03179064020514488f, 0.020265307277441025f, -0.09809183329343796f, -0.17126968502998352f, 0.03552936017513275f, 
		-0.08794590830802917f, -0.03257187828421593f, 0.10936008393764496f, -0.12155593186616898f, 0.14517317712306976f, 
		-0.13031427562236786f, 0.18722735345363617f, 0.13820390403270721f, -0.17619231343269348f, 0.01124477107077837f, 
		0.11164786666631699f, 0.02213273011147976f, -0.0696909949183464f, -0.11859595030546188f, -0.11597143858671188f, 
		-0.07107333838939667f, 0.11873442679643631f, 0.16214056313037872f, -0.026845254004001617f, -0.11688590049743652f, 
		0.16120001673698425f, -0.02230205573141575f, 0.1450454443693161f, -0.04749389737844467f, -0.08799036592245102f, 
		-0.0779624730348587f, -0.16128401458263397f, -0.04161876440048218f, 0.049701519310474396f, 0.15158703923225403f, 
		0.09011442959308624f, -0.13235066831111908f, 0.14672909677028656f, -0.15239745378494263f, -0.10799746215343475f, 
		-0.06908158957958221f, -0.10661593079566956f, -0.17896418273448944f, -0.13432720303535461f, 0.06214216351509094f, 
		0.004774822853505611f, 0.09046261757612228f, 0.006832171231508255f, 0.046081725507974625f, 0.069590263068676f, 
		-0.0029008176643401384f, 0.120681993663311f, 0.04772024601697922f, -0.1433551013469696f, 0.03189285099506378f, 
		-0.11120600998401642f, -0.09080202877521515f, -0.08438186347484589f, 0.056657418608665466f, 0.02475265972316265f, 
		0.1435748189687729f, -0.0069092377088963985f, -0.025646310299634933f, -0.042050063610076904f, -0.06722597032785416f, 
		-0.12401311099529266f, 0.11747433245182037f, 0.06201821193099022f, -0.080237977206707f, 0.11196371167898178f, 
		0.1304100751876831f, -0.20174390077590942f, -0.07747918367385864f, 0.124578557908535f, 0.07514504343271255f, 
		-0.15402765572071075f, 0.02327520214021206f, -0.11858300864696503f, -0.03537434712052345f, -0.13037928938865662f, 
		0.16752523183822632f, -0.07935928553342819f, -0.07497859746217728f, -0.11178570240736008f, -0.04116581380367279f, 
		0.17858092486858368f, 0.1082577109336853f, -0.08851965516805649f, 0.1517023891210556f, 0.16076692938804626f, 
		-0.11474154889583588f, -0.12102165073156357f, -0.046588215976953506f, 0.09134744852781296f, -0.07770475745201111f, 
		-0.14318448305130005f, 0.13159672915935516f, -0.1036953404545784f, 0.06118886545300484f, 0.026178129017353058f, 
		-0.16809123754501343f, 0.043640077114105225f, 0.17421802878379822f, -0.01950807310640812f, 0.059015508741140366f, 
		-0.017630595713853836f, -0.07141077518463135f, -0.0892740935087204f, -0.08770349621772766f, 0.13925540447235107f, 
		-0.06223908066749573f, 0.1319834589958191f, -0.053368862718343735f, -0.0939522311091423f, -0.07809481769800186f, 
		-0.1023174375295639f, 0.092735156416893f, -0.048221319913864136f, -0.12344927340745926f, 0.051323890686035156f, 
		-0.23253849148750305f, 0.16969439387321472f, 0.01458149403333664f, -0.049146465957164764f, -0.06751926988363266f, 
		0.09584248065948486f, -0.09190080314874649f, -0.13217154145240784f, -0.1305316686630249f, -0.0159655399620533f, 
		-0.1755828857421875f, 0.07475866377353668f, -0.02696102298796177f, -0.10079055279493332f, 0.06228548660874367f, 
		-0.015093795955181122f, -0.07812719792127609f, 0.0110543854534626f, 0.1276952624320984f, 0.04679245129227638f, 
		-0.12561844289302826f, -0.005384528078138828f, -0.001258222502656281f, -0.029077257961034775f, -0.002676529809832573f, 
		0.13548599183559418f, -0.1789599061012268f, -0.174733504652977f, -0.10153428465127945f, 0.13666319847106934f, 
		0.13687239587306976f, 0.13270287215709686f, 0.1600649654865265f, 0.016061462461948395f, -0.1208604946732521f, 
		0.012253808788955212f, -0.12546662986278534f, -0.19629473984241486f, 0.15000522136688232f, 0.07118459045886993f, 
		0.05359622463583946f, -0.17873992025852203f, 0.016490047797560692f, -0.08059068769216537f, -0.007977893576025963f, 
		-0.0824255496263504f, -0.042631421238183975f, 0.1358460783958435f, 0.08493337780237198f, 0.0579385943710804f, 
		-0.09382995963096619f, -0.006370280869305134f, 0.19996877014636993f, -0.021272892132401466f, -0.04586590453982353f, 
		-0.14766430854797363f, -0.1265954226255417f, -0.06642692536115646f, 0.132850781083107f, -0.164259672164917f, 
		0.03417091816663742f, -0.13545383512973785f, -0.01524489838629961f, -0.05685925856232643f, -0.0794229730963707f, 
		0.10560929030179977f, -0.14713901281356812f, -0.06480385363101959f, -0.012767245061695576f, -0.04329836741089821f, 
		-0.061169229447841644f, 0.06398069113492966f, 0.1285846084356308f, -0.18381141126155853f, 0.03970084711909294f, 
		-0.0617113932967186f, -0.11622878909111023f, 0.14105521142482758f, -0.16394969820976257f, -0.04930722340941429f, 
		0.07198932021856308f, -0.24163536727428436f, 0.09710454940795898f, -0.15669578313827515f, 0.0689253881573677f, 
		0.12394122034311295f, -0.006771162152290344f, 0.10579194128513336f, 0.1201501414179802f, 0.056943412870168686f, 
		-0.03310374543070793f, 0.1456509381532669f, 0.15819373726844788f, -0.12959785759449005f, -0.1429997831583023f, 
		-0.09720402956008911f, -0.11090473085641861f, 0.14940549433231354f, -0.1311456859111786f, 0.08640462160110474f, 
		0.0367545448243618f, 0.11729822307825089f, 0.16914254426956177f, -0.13312140107154846f, 0.16740311682224274f, 
		0.020221218466758728f, 0.022606706246733665f, -0.03849966078996658f, -0.0676279366016388f, -0.0067719751968979836f, 
		-0.10413537919521332f, 0.22704264521598816f, -0.19660264253616333f, -0.13364730775356293f, 0.07364403456449509f, 
		-0.06193069741129875f, 0.13661357760429382f, -0.04344577714800835f, 0.1374836564064026f, 0.08580847084522247f, 
		0.14894002676010132f, 0.16254833340644836f, 0.0430363304913044f, -0.14883942902088165f, -0.05754479765892029f, 
		-0.1521710902452469f, 0.05972309038043022f, 0.06482882797718048f, 0.18259309232234955f, 0.12331385165452957f, 
		0.14701531827449799f, -0.08016326278448105f, 0.23048575222492218f, -0.15269069373607635f, -0.02633870579302311f, 
		0.0875670537352562f, 0.14750468730926514f, 0.002096261363476515f, -0.12917675077915192f, 0.10078620165586472f, 
		0.06430467218160629f, 0.1176377534866333f, 0.12376430630683899f, 0.07680107653141022f, -0.13278828561306f, 
		0.12183954566717148f, -0.019410843029618263f, -0.017579665407538414f, 0.0370614193379879f, 0.17274382710456848f, 
		-0.0028336101677268744f, 0.0712997317314148f, 0.09679888933897018f, -0.1409853994846344f, -0.05497031286358833f, 
		-0.11185551434755325f, -0.07166866958141327f, 0.08922688663005829f, 0.024399179965257645f, -0.07697819918394089f, 
		-0.0042639682069420815f, 0.06591388583183289f, -0.011401516385376453f, 0.028060393407940865f, 0.03761029243469238f, 
		-0.059574369341135025f, -0.17571988701820374f, -0.1774083524942398f, 0.029538065195083618f, 0.1617135852575302f, 
		0.002746880054473877f, 0.1340598464012146f, -0.08860581368207932f, 0.12054182589054108f, -0.11248044669628143f, 
		-0.1785506010055542f, -0.1320464015007019f, -0.13248002529144287f, 0.05124019831418991f, 0.1606520116329193f, 
		-0.013723899610340595f, -0.17660664021968842f, -0.06353633850812912f, -0.07563930749893188f, 0.1934402585029602f, 
		-0.07725204527378082f, 0.14315354824066162f, 0.045292507857084274f, 0.022504860535264015f, -0.04832366108894348f, 
		0.012623152695596218f, -0.09908419102430344f, -0.11835242807865143f, 0.1339169591665268f, 0.19745580852031708f, 
		0.13564178347587585f, -0.16305731236934662f, 0.01241997443139553f, -0.12754853069782257f, 0.09955133497714996f, 
		-0.07341915369033813f, -0.056106410920619965f, 0.07308557629585266f, 0.07928761839866638f, 0.04289928823709488f, 
		0.07427647709846497f, -0.007677809800952673f, 0.09162803739309311f, -0.11894762516021729f, 0.07475501298904419f, 
		0.10276834666728973f, 0.017652107402682304f, -0.16497571766376495f, 0.15365925431251526f, -0.043721240013837814f, 
		-0.006080957129597664f, -0.1291552186012268f, -0.05299551784992218f, -0.10570956766605377f, 0.10417462140321732f, 
		0.059522952884435654f, -0.09164353460073471f, -0.010374225676059723f, 0.16237731277942657f, -0.05518961325287819f, 
		-0.0360531248152256f, 0.21128137409687042f, -0.023774905130267143f, 0.16504326462745667f, -0.005401548929512501f, 
		-0.09280911087989807f, 0.09066252410411835f, 0.033635012805461884f, -0.054232027381658554f, 0.061481062322854996f, 
		-0.026792442426085472f, 0.14046864211559296f, 0.07265328615903854f, 0.13954424858093262f, 0.01031018327921629f, 
		0.07216674834489822f, -0.03269923850893974f, -0.10354885458946228f, -0.14679475128650665f, 0.08989487588405609f, 
		-0.08287504315376282f, 0.14262889325618744f, -0.0008627503411844373f, 0.09727243334054947f, 0.20527790486812592f, 
		0.27970486879348755f, 0.2556852400302887f, -0.05104438215494156f, -0.11024127900600433f, -0.04462281987071037f, 
		0.15097714960575104f, -0.049079228192567825f, 0.1766650676727295f, -0.10078407824039459f, 0.15867866575717926f, 
		0.15656685829162598f, 0.15613265335559845f, -0.09011544287204742f, 0.13749276101589203f, -0.06281799077987671f, 
		0.05102785676717758f, -0.035955168306827545f, -0.13783572614192963f, 0.0704544186592102f, -0.046812307089567184f, 
		0.1717621386051178f, -0.1685471087694168f, 0.02381918393075466f, 0.07388690859079361f, -0.1820952594280243f, 
		0.13381846249103546f, -0.09136590361595154f, -0.08000408113002777f, 0.11953137069940567f, -0.18499509990215302f, 
		-0.06011871621012688f, 0.0036762768868356943f, 0.09380249679088593f, 0.14019443094730377f, -0.044905927032232285f, 
		-0.07754752784967422f, 0.1573534458875656f, 0.12314153462648392f, -0.15501442551612854f, 0.15233303606510162f, 
		-0.1381607949733734f, 0.013086975552141666f, 0.04097914323210716f, -0.09368591755628586f, -0.0014522257260978222f, 
		0.03294100984930992f, 0.14061938226222992f, 0.07206222414970398f, -0.10954021662473679f, 0.09876418858766556f, 
		0.10068079829216003f, 0.008327590301632881f, -0.08581586182117462f, 0.12415611743927002f, -0.1393774300813675f, 
		-0.05025582015514374f, 0.22982941567897797f, -0.05333811417222023f, -0.08105182647705078f, -0.012676503509283066f, 
		0.026773784309625626f, 0.052877381443977356f, 0.05210857838392258f, 0.12970483303070068f, -0.09574432671070099f, 
		-0.01990191452205181f, 0.015245501883327961f, 0.12113865464925766f, -0.048108551651239395f, 0.020007720217108727f, 
		-0.16956685483455658f, -0.13647812604904175f, 0.016308940947055817f, -0.043681178241968155f, -0.07550670206546783f, 
		0.14878399670124054f, 0.08319991827011108f, -0.1358812153339386f, 0.16546931862831116f, -0.15713784098625183f, 
		0.059229832142591476f, 0.019686255604028702f, 0.02282194048166275f, -0.017604205757379532f, 0.0259014330804348f, 
		0.16518250107765198f, 0.1466175615787506f, -0.09172850102186203f, 0.16197732090950012f, 0.16042490303516388f, 
		0.09453772008419037f, -0.14898867905139923f, -0.020482998341321945f, -0.016343312337994576f, -0.021825183182954788f, 
		-0.1529558300971985f, -0.044901229441165924f, 0.033610958606004715f, -0.061400316655635834f, 0.05659720301628113f, 
		-0.10153808444738388f, -0.16922032833099365f, 0.15981347858905792f, -0.10450088232755661f, -0.1539100557565689f, 
		0.22203853726387024f, -0.08319109678268433f, 0.022600963711738586f, 0.015025529079139233f, -0.07585268467664719f, 
		0.131510391831398f, -0.07581718266010284f, -0.04548037424683571f, -0.10375020653009415f, -0.13163192570209503f, 
		-0.04543185979127884f, -0.08523420989513397f, 0.04285541921854019f, 0.08326113969087601f, -0.17792755365371704f, 
		0.1697646975517273f, -0.051874175667762756f, 0.11422929912805557f, -0.2601284980773926f, -0.08869648724794388f, 
		0.1145150363445282f, 0.01991724595427513f, -0.09400131553411484f, 0.12966634333133698f, 0.14659616351127625f, 
		0.09644345939159393f, -0.014643854461610317f, -0.22049808502197266f, -0.17721889913082123f, -0.022763242945075035f, 
		-0.1663399040699005f, -0.1605389416217804f, 0.06453827768564224f, 0.014988092705607414f, 0.05237707495689392f, 
		-0.1555817723274231f, -0.14539062976837158f, 0.06471426039934158f, 0.04572305455803871f, 0.10569034516811371f, 
		0.1493978500366211f, 0.029386287555098534f, -0.10882996767759323f, 0.018508106470108032f, -0.0043998537585139275f, 
		0.15601830184459686f, 0.06836282461881638f, 0.10460768640041351f, 0.1716402769088745f, 0.11589942127466202f, 
		-0.1753530502319336f, -0.026553526520729065f, -0.03938059136271477f, -0.029510946944355965f, 0.12087513506412506f, 
		-0.041539907455444336f, -0.07822825759649277f, 0.11716270446777344f, -0.10449431091547012f, 0.02739933505654335f, 
		-0.03443235903978348f, -0.049621209502220154f, 0.07143264263868332f, 0.034930408000946045f, -0.1156691163778305f, 
		0.0497790165245533f, 0.07377763092517853f, 0.013641038909554482f, 0.08363380283117294f, -0.01803252287209034f, 
		0.10485434532165527f, 0.03623013570904732f, 0.13451749086380005f, -0.10740629583597183f, -0.05218255892395973f, 
		-0.01197956781834364f, -0.05458172783255577f, -0.006415291223675013f, 0.03214489668607712f, -0.046325020492076874f, 
		-0.13790112733840942f, -0.002646386157721281f, -0.20006240904331207f, 0.004837878048419952f, 0.08747991919517517f, 
		0.1227463111281395f, 0.0710274875164032f, 0.11745703965425491f, -0.09817958623170853f, -0.08972936868667603f, 
		0.02017096057534218f, -0.08459222316741943f, -0.14850318431854248f, -0.07183501869440079f, -0.10444314032793045f, 
		0.014768049120903015f, 0.09007249027490616f, -0.04905399680137634f, -0.044909123331308365f, 0.09970299899578094f, 
		0.1280008852481842f, 0.10634052008390427f, -0.0706673339009285f, 0.04527738690376282f, 0.0642743781208992f, 
		0.14503000676631927f, 0.08748069405555725f, -0.11979005485773087f, -0.13327087461948395f, 0.1411108374595642f, 
		0.13207563757896423f, -0.14641901850700378f, -0.17989404499530792f, 0.06942017376422882f, -0.10046398639678955f, 
		0.03188770264387131f, -0.11458441615104675f, -0.07185401022434235f, 0.10254602879285812f, 0.20262251794338226f, 
		-0.1741311103105545f, 0.029800526797771454f, 0.1463935375213623f, 0.2001328319311142f, -0.11298787593841553f, 
		-0.01637936383485794f, 0.1551142930984497f, -0.28525128960609436f, -0.028065096586942673f, 0.05436606705188751f, 
		0.1351146697998047f, -0.15132269263267517f, -0.033127788454294205f, -0.08043455332517624f, -0.09679331630468369f, 
		-0.0042935567907989025f, 0.05327051505446434f, 0.0015842998400330544f, -0.04566747695207596f, 0.15496769547462463f, 
		-0.10319074243307114f, 0.034646231681108475f, -0.08797741681337357f, 0.12111462652683258f, -0.008584050461649895f, 
		-0.10816024988889694f, 0.1590752899646759f, -0.10169094800949097f, -0.018819693475961685f, 0.18288390338420868f, 
		-0.16005070507526398f, 0.01017006579786539f, -0.0898219645023346f, 0.15558193624019623f, -0.042746007442474365f, 
		0.0770818367600441f, -0.10178843140602112f, -0.023078111931681633f, -0.10138658434152603f, 0.03283945471048355f, 
		-0.09870981425046921f, -0.08899880945682526f, 0.03795350715517998f, 0.020779049023985863f, -0.007679597940295935f, 
		0.0223416518419981f, 0.12546445429325104f, 0.1123160868883133f, 0.0703730434179306f, -0.03663613647222519f, 
		0.1339946836233139f, -0.12698909640312195f, -0.23500999808311462f, -0.15371796488761902f, -0.07009990513324738f, 
		0.0014393714955076575f, 0.03825291991233826f, 0.11140821874141693f, 0.07093911617994308f, 0.1992453783750534f, 
		-0.09233526140451431f, 0.017147231847047806f, -0.13383711874485016f, -0.15475140511989594f, 0.006657094694674015f, 
		-0.05003414675593376f, -0.01156034879386425f, 0.10250119119882584f, -0.028071915730834007f, 0.0935310572385788f, 
		-0.008897759951651096f, 0.1455601155757904f, -0.07258632034063339f, -0.1581822782754898f, 0.09764602035284042f, 
		0.03185306861996651f, -0.05026359483599663f, 0.09785517305135727f, -0.037451643496751785f, 0.016193266957998276f, 
		-0.03125690668821335f, 0.09441237151622772f, -0.11042028665542603f, 0.11152176558971405f, -0.032261066138744354f, 
		0.11593803018331528f, 0.09421685338020325f, -0.118191659450531f, 0.034699857234954834f, 0.17143508791923523f, 
		-0.005802472587674856f, -0.023147039115428925f, 0.04375950247049332f, -0.029663128778338432f, 0.09320764243602753f, 
		0.062181707471609116f, -0.16912223398685455f, 0.0810922384262085f, 0.16808292269706726f, 0.1187124252319336f, 
		-0.034476056694984436f, -0.10939157009124756f, -0.04434308409690857f, 0.05592096969485283f, 0.0824567973613739f, 
		0.1159016415476799f, 0.11738985776901245f, -0.12577620148658752f, -0.17917002737522125f, 0.16534017026424408f, 
		-0.15233539044857025f, 0.1015091985464096f, -0.1090036928653717f, -0.13453342020511627f, -0.1762659251689911f, 
		0.1543106734752655f, -0.1372978687286377f, -0.1529599130153656f, 0.01062785368412733f, 0.07304029166698456f, 
		-0.01760435663163662f, -0.08402909338474274f, 0.17248472571372986f, 0.009169023483991623f, 0.11489629000425339f, 
		-0.1653285026550293f, 0.017177587375044823f, -0.11089568585157394f, 0.1339169442653656f, 0.04587056487798691f, 
		0.08706478029489517f, -0.07970988750457764f, -0.0050632464699447155f, 0.0322188138961792f, -0.05498766154050827f, 
		-0.003399949287995696f, -0.029954036697745323f, 0.08272206038236618f, -0.0004816839355044067f, -0.14804981648921967f, 
		0.01173895038664341f, -0.1627262383699417f, -0.10399037599563599f, 0.14025701582431793f, -0.06652876734733582f, 
		0.03340313956141472f, 0.07141479849815369f, 0.2072754204273224f, 0.23674774169921875f, -0.16217541694641113f, 
		-0.11231865733861923f, -0.11485423892736435f, -0.10336588323116302f, -0.14803622663021088f, -0.11772331595420837f, 
		-0.01744082011282444f, 0.15263192355632782f, -0.1516173928976059f, -0.027103452011942863f, -0.07819022983312607f, 
		-0.04172556847333908f, 0.08695615082979202f, -0.13979163765907288f, 0.19972911477088928f, -0.018758196383714676f, 
		-0.12434031814336777f, -0.1422669142484665f, 0.14921005070209503f, 0.08179385215044022f, -0.061648063361644745f, 
		-0.08096162974834442f, -0.029924452304840088f, 0.11386937648057938f, 0.01856301724910736f, 0.11595137417316437f, 
		0.1702512949705124f, 0.16154073178768158f, 0.06792765110731125f, -0.07235568016767502f, 0.03754391148686409f, 
		0.06378774344921112f, -0.04053129628300667f, -0.10517407208681107f, 0.021965807303786278f, 0.1855398416519165f, 
		0.06904008239507675f, 0.16173440217971802f, -0.04040807485580444f, -0.12984906136989594f, 0.07394344359636307f, 
		0.1552806943655014f, 0.060994572937488556f, -0.10945596545934677f, -0.0998375341296196f, 0.00944889523088932f, 
		0.009049704298377037f, -0.1015121266245842f, 0.06185556575655937f, -0.08268596976995468f, -0.16650080680847168f, 
		-0.07701116800308228f, 0.029126830399036407f, -0.042125534266233444f, -0.017119795083999634f, -0.04379864037036896f, 
		0.011038976721465588f, -0.190247043967247f, -0.07077223807573318f, 0.017908811569213867f, 0.1718396246433258f, 
		0.06420233845710754f, 0.11570712924003601f, -0.16701091825962067f, -0.11968642473220825f, 0.06892754137516022f, 
		-0.026029493659734726f, -0.01617244817316532f, 0.15508447587490082f, -0.1109074130654335f, 0.11781490594148636f, 
		-0.016959173604846f, 0.13276483118534088f, 0.1645815521478653f, -0.03230910003185272f, 0.172394797205925f, 
		-0.07073979824781418f, 0.003818724537268281f, 0.09491515904664993f, -0.14894220232963562f, 0.1121872216463089f, 
		0.12227226793766022f, -0.0961739793419838f, 0.1641823798418045f, 0.037775445729494095f, -0.10531992465257645f, 
		0.0952407568693161f, 0.13912436366081238f, -0.03561803698539734f, 0.17356275022029877f, 0.0041431039571762085f, 
		0.04231243580579758f, -0.09841465950012207f, 0.04776525869965553f, -0.07091640681028366f, -0.04238614812493324f, 
		-0.05626256763935089f, -0.01587931625545025f, 0.12382324039936066f, -0.17006215453147888f, -0.16518603265285492f, 
		0.07424303144216537f, -0.174551859498024f, 0.10164541751146317f, -0.10807488113641739f, -0.14444833993911743f, 
		0.1767648607492447f, 0.11321847140789032f, 0.05661923438310623f, -0.07824049144983292f, -0.055981237441301346f, 
		0.10663214325904846f, 0.02799588069319725f, 0.1195620447397232f, 0.22212126851081848f, -0.08622436970472336f, 
		-0.030015090480446815f, -0.004504931624978781f, 0.05551818385720253f, 0.08654426783323288f, -0.09673260152339935f, 
		0.13049565255641937f, 0.08569830656051636f, 0.09116233140230179f, -0.06979331374168396f, 0.08506383001804352f, 
		0.0025200184900313616f, 0.09938417375087738f, -0.011751069687306881f, -0.1690100133419037f, -0.021779125556349754f, 
		-0.036218129098415375f, 0.013315912336111069f, 0.08378826826810837f, -0.010352343320846558f, -0.0951756089925766f, 
		0.17049959301948547f, -0.06806998699903488f, 0.11734205484390259f, 0.12397539615631104f, 0.010758217424154282f, 
		0.005433663725852966f, -0.02730451337993145f, -0.01758410409092903f, -0.04109077900648117f, -0.05515299364924431f, 
		-0.015172135084867477f, -0.17563806474208832f, 0.0687781497836113f, -0.0635150596499443f, -0.1965240091085434f, 
		-0.05798555165529251f, -0.07067152112722397f, -0.0691855400800705f, -0.09046927839517593f, 0.08297847956418991f, 
		0.14960338175296783f, -0.005042418371886015f, -0.08192770183086395f, -0.2449238896369934f, -0.20470154285430908f, 
		-0.06450022757053375f, 0.08373748511075974f, -0.06967107951641083f, -0.01163418311625719f, -0.09705958515405655f, 
		-0.10674446821212769f, -0.08625149726867676f, -0.08353320509195328f, -0.12284578382968903f, 0.11322963237762451f, 
		0.013610863126814365f, 0.09874236583709717f, 0.026594584807753563f, 0.16733677685260773f, -0.05864740535616875f, 
		0.13556179404258728f, 0.12173587828874588f, 0.13342803716659546f, 0.18108417093753815f, -0.009442372247576714f, 
		-0.11214187741279602f, 0.07555220276117325f, 0.125269815325737f, -0.17308303713798523f, 0.07571879029273987f, 
		-0.1382235288619995f, 0.1346179097890854f, 0.01703011617064476f, 0.13245458900928497f, 0.09297613799571991f, 
		-0.014090283773839474f, 0.07729639112949371f, 0.05847685784101486f, 0.19963862001895905f, -0.1971277892589569f, 
		0.013387377373874187f, 0.09257911145687103f, 0.14247824251651764f, -0.07170147448778152f, -0.03344234824180603f, 
		-0.245797261595726f, -0.08606238663196564f, -0.038845088332891464f, -0.053956352174282074f, 0.11392334848642349f, 
		0.09569429606199265f, 0.14388403296470642f, 0.00227826414629817f, -0.14193730056285858f, 0.11363115906715393f, 
		0.05789662525057793f, 0.1037839725613594f, 0.016672523692250252f, -0.15881313383579254f, 0.06545978784561157f, 
		-0.16115373373031616f, -0.18033632636070251f, -0.1570315808057785f, -0.1430203765630722f, 0.06097038835287094f, 
		0.012460287660360336f, -0.10929972678422928f, -0.11607251316308975f, 0.09391462057828903f, -0.12647134065628052f, 
		-0.1458887755870819f, -0.13036637008190155f, 0.13014085590839386f, -0.07273529469966888f, -0.12901635468006134f, 
		0.03190992772579193f, -0.17946821451187134f, -0.021597886458039284f, -0.07017768174409866f, 0.14964857697486877f, 
		0.10057028383016586f, 0.1634402573108673f, 0.13376902043819427f, 0.09937727451324463f, -0.08032484352588654f, 
		-0.07267291843891144f, -0.13537687063217163f, 0.06686356663703918f, -0.1108536347746849f, -0.17396533489227295f, 
		-0.1002061516046524f, -0.0650576502084732f, -0.027898406609892845f, -0.02024652808904648f, -0.043859850615262985f, 
		-0.12216899544000626f, 0.0597945861518383f, -0.021930426359176636f, 0.04548337310552597f, -0.011459474451839924f, 
		-0.15274527668952942f, -0.04066551849246025f, -0.012480482459068298f, 0.07954297214746475f, -0.1482400894165039f, 
		-0.17854827642440796f, -0.10289272665977478f, -0.008529916405677795f, -0.13107989728450775f, -0.12174481153488159f, 
		-0.030390337109565735f, 0.13469797372817993f, -0.06825748085975647f, 0.015678733587265015f, -0.19753971695899963f, 
		0.05596199259161949f, -0.16054844856262207f, 0.11021671444177628f, -0.11854303628206253f, -0.13901640474796295f, 
		0.10474582016468048f, 0.17230729758739471f, -0.14466232061386108f, -0.06611023843288422f, 0.07916281372308731f, 
		0.009847446344792843f, -0.1367606669664383f, 0.05912967771291733f, 0.09072448313236237f, -0.03813486546278f, 
		-0.009028835222125053f, 0.1026751771569252f, -0.004469568375498056f, 0.058290813118219376f, 0.12324836105108261f, 
		0.07571933418512344f, -0.10546247661113739f, -0.006582156755030155f, -0.04385533183813095f, 0.11233536899089813f, 
		-0.056454356759786606f, 0.15990838408470154f, -0.09887305647134781f, -0.05523671954870224f, -0.031040357425808907f, 
		0.0781298279762268f, -0.06657861918210983f, 0.15711238980293274f, 0.13232703506946564f, -0.14214296638965607f, 
		0.009163961745798588f, 0.16960282623767853f, 0.14580926299095154f, 0.13843677937984467f, -0.14841638505458832f, 
		-0.18956375122070312f, -0.12991467118263245f, -0.14506474137306213f, -0.05362437665462494f, 0.1246427372097969f, 
		-0.05440898239612579f, -0.08138351142406464f, 0.10208404809236526f, -0.1852792203426361f, 0.13783225417137146f, 
		-0.07723455876111984f, -0.012324974872171879f, -0.04688053950667381f, -0.08233537524938583f, -0.10239662975072861f, 
		-0.12325841188430786f, 3.865945836878382e-05f, 0.03984550014138222f, -0.09808632731437683f, 0.15676508843898773f, 
		-0.08725106716156006f, 0.03578578680753708f, 0.053943365812301636f, -0.2692495882511139f, -0.06592211127281189f, 
		0.05358995497226715f, 0.1466899812221527f, -0.1713387817144394f, -0.053787603974342346f, 0.023486722260713577f, 
		-0.027959365397691727f, 0.04166572540998459f, -0.16330628097057343f, -0.010515878908336163f, -0.005679157096892595f, 
		-0.1599726378917694f, 0.01840931549668312f, -0.16100168228149414f, -0.14926090836524963f, -0.17228293418884277f, 
		0.05523976683616638f, 0.13911068439483643f, -0.050507109612226486f, 0.13352371752262115f, 0.05613303929567337f, 
		0.032670699059963226f, -0.06902237981557846f, -0.013852408155798912f, -0.09747319668531418f, 0.19384191930294037f, 
		0.025190837681293488f, 0.2059972882270813f, -0.15085716545581818f, 0.023200301453471184f, -0.03774857148528099f, 
		-0.06866860389709473f, 0.15306726098060608f, 0.15117494761943817f, -0.07401669025421143f, 0.028801623731851578f, 
		-0.17505492269992828f, 0.05281585454940796f, 0.16067945957183838f, 0.012691044248640537f, 0.07079364359378815f, 
		0.15161862969398499f, 0.06360980123281479f, -0.0989915132522583f, 0.15766851603984833f, -0.1608482152223587f, 
		-0.1266423463821411f, 0.1557421237230301f, 0.034926485270261765f, 0.0969814881682396f, -0.024570172652602196f, 
		0.1659487932920456f, 0.11264781653881073f, 0.12158259749412537f, 0.07374215126037598f, 0.08586513996124268f, 
		0.1105402484536171f, -0.10807447135448456f, 0.11072847992181778f, -0.04477916657924652f, -0.1181529089808464f, 
		0.15234211087226868f, 0.13461963832378387f, -0.11865084618330002f, -0.0782608687877655f, -0.11625019460916519f, 
		-0.16204160451889038f, 0.05493126064538956f, 0.12025561928749084f, -0.03992282971739769f, 0.057118333876132965f, 
		-0.177997887134552f, 0.14201778173446655f, 0.1273217350244522f, -0.17451858520507812f, 0.14750806987285614f, 
		0.03544476628303528f, -0.14717800915241241f, -0.16229045391082764f, -0.006810798309743404f, -0.0036951007787138224f, 
		0.08860432356595993f, 0.1094551533460617f, -0.12626224756240845f, -0.03771430253982544f, -0.06538736820220947f, 
		0.01129512581974268f, 0.04553966596722603f, -0.1941329389810562f, 0.07687585800886154f, 0.01884104497730732f, 
		0.04021500051021576f, 0.035153452306985855f, -0.01150589156895876f, -0.00931559968739748f, 0.0494338795542717f, 
		-0.1719532012939453f, -0.13948214054107666f, -0.04530057683587074f, 0.14426887035369873f, 0.15136347711086273f, 
		0.057641856372356415f, -0.14236962795257568f, 0.04057048633694649f, -0.044326864182949066f, -0.17026348412036896f, 
		-0.10551397502422333f, -0.14334364235401154f, -0.018293458968400955f, 0.03973999246954918f, -0.12078911811113358f, 
		-0.04709337651729584f, 0.0696733146905899f, -0.14275215566158295f, -0.1748640388250351f, -0.19019079208374023f, 
		-0.16090036928653717f, 0.021770302206277847f, 0.07484236359596252f, 0.056596770882606506f, -0.11051097512245178f, 
		-0.03735390678048134f, -0.03339632600545883f, -0.134382426738739f, -0.001008746330626309f, 0.01674722693860531f, 
		-0.17211395502090454f, 0.04549706354737282f, 0.08054599165916443f, 0.012606950476765633f, -0.1718708574771881f, 
		-0.008889127522706985f, -0.16823799908161163f, -0.1319502741098404f, -0.06876859068870544f, -0.12107109278440475f, 
		-0.031480107456445694f, 0.1115461140871048f, 0.060790110379457474f, 0.16378869116306305f, -0.08629799634218216f, 
		0.049476224929094315f, -0.12490841746330261f, 0.15021257102489471f, -0.22045573592185974f, 0.16110007464885712f, 
		-0.04577574133872986f, -0.17383596301078796f, -0.07007748633623123f, -0.16038067638874054f, -0.03075890988111496f, 
		-0.06360496580600739f, -0.09260989725589752f, 0.11418124288320541f, 0.17664974927902222f, 0.04149040952324867f, 
		-0.07124607264995575f, -0.08414474874734879f, 0.030549082905054092f, -0.14111895859241486f, 0.130558580160141f, 
		-0.007500405889004469f, 0.12230793386697769f, 0.08201900124549866f, 0.16788838803768158f, 0.013529934920370579f, 
		0.005220955703407526f, -0.1510634869337082f, 0.005139749497175217f, -0.06574118882417679f, 0.1468733251094818f, 
		0.01808795891702175f, 0.12083423882722855f, 0.03884515166282654f, 0.10362550616264343f, 0.0760403648018837f, 
		0.04847582057118416f, 0.08858252316713333f, -0.05926234647631645f, 0.10300682485103607f, 0.09958451986312866f, 
		-0.06194659322500229f, -0.009861903265118599f, 0.06435808539390564f, 0.07699202746152878f, -0.027783270925283432f, 
		0.04667487367987633f, 0.05832894146442413f, -0.02257615141570568f, 0.002469482598826289f, -0.05886780098080635f, 
		-0.006526615004986525f, 0.02907712571322918f, -0.1511489897966385f, -0.0662790909409523f, 0.020567364990711212f, 
		0.060387853533029556f, -0.005671968217939138f, -0.10118025541305542f, -0.12888093292713165f, 0.00771170761436224f, 
		0.029698969796299934f, 0.04920616000890732f, -0.01789543218910694f, 0.0566975437104702f, 0.09382425248622894f, 
		-0.05148666724562645f, 0.1574459969997406f, 0.17543679475784302f, -0.15187712013721466f, -0.16744071245193481f, 
		0.1598680168390274f, -0.0421973317861557f, -0.11743257939815521f, -0.2164628952741623f, -0.0076643298380076885f, 
		0.16766412556171417f, 0.057046182453632355f, 0.027112780138850212f, 0.13729234039783478f, 0.14418308436870575f, 
		0.06730014085769653f, -0.07477089762687683f, -0.058963220566511154f, -0.05254097282886505f, -0.15489107370376587f, 
		0.1841782033443451f, -0.05004359409213066f, -0.05764848738908768f, 0.1851380318403244f, 0.1123802587389946f, 
		-0.18730291724205017f, -0.045477245002985f, -0.011643914505839348f, -0.12595589458942413f, -0.13840064406394958f, 
		-0.030003374442458153f, -0.09831828624010086f, -0.16997520625591278f, 0.07878584414720535f, 0.057718425989151f, 
		0.06320764124393463f, 0.11706889420747757f, -0.023276472464203835f, -0.08389072120189667f, -0.0430634506046772f, 
		-0.08120343834161758f, -0.07906966656446457f, -0.1051066592335701f, 0.18405093252658844f, 0.1605737954378128f, 
		-0.13108329474925995f, -0.13101410865783691f, -0.14061839878559113f, 0.10611122101545334f, -0.25864630937576294f, 
		-0.020559916272759438f, -0.09183648973703384f, 0.032289303839206696f, -0.04590654373168945f, 0.0490785650908947f, 
		-0.10116827487945557f, 0.08935483545064926f, -0.03418339788913727f, 0.03706201910972595f, 0.02338522858917713f, 
		0.10990852862596512f, 0.07595816254615784f, -0.1803540736436844f, 0.04233410209417343f, -0.09969232976436615f, 
		-0.06356315314769745f, -0.06067362800240517f, -0.1307414025068283f, -0.04139504209160805f, -0.17498107254505157f, 
		-0.15097524225711823f, 0.1376560926437378f, 0.02495734952390194f, -0.17290209233760834f, 0.05211314558982849f, 
		0.1815948188304901f, -0.012250712141394615f, -0.012354734353721142f, 0.10563637316226959f, -0.19493071734905243f, 
		-0.09682575613260269f, 0.17622330784797668f, -0.147536039352417f, 0.10602489858865738f, 0.06762517988681793f, 
		0.11655548214912415f, 0.044627875089645386f, -0.19666579365730286f, -0.14433349668979645f, 0.10085531324148178f, 
		0.0981050506234169f, 0.08950778841972351f, 0.05474242940545082f, 0.16320033371448517f, 0.18932266533374786f, 
		0.0021089883521199226f, 0.1330757588148117f, -0.033073823899030685f, 0.0777507796883583f, 0.04039234295487404f, 
		-0.005237404257059097f, 0.17307104170322418f, -0.028021402657032013f, 0.1272737830877304f, 0.08006643503904343f, 
		-0.008818097412586212f, -0.09974895417690277f, 0.10821020603179932f, 0.16697022318840027f, 0.05419546365737915f, 
		-0.08358145505189896f, 0.13386498391628265f, 0.06996172666549683f, 0.1884489208459854f, 0.0992167741060257f, 
		-0.009790003299713135f, -0.05688180401921272f, 0.06560242176055908f, -0.1125635877251625f, 0.0792185366153717f, 
		-0.012171221897006035f, -0.11970730125904083f, -0.010868302546441555f, -0.13083761930465698f, 0.12329167127609253f, 
		0.16517995297908783f, 0.07371466606855392f, -0.0826096162199974f, -0.11431137472391129f, -0.027324261143803596f, 
		0.06901344656944275f, 0.005065056495368481f, -0.14647865295410156f, -0.1632131189107895f, -0.03090270236134529f, 
		-0.039412226527929306f, -0.07653726637363434f, -0.10162799805402756f, -0.2653043866157532f, 0.11969444155693054f, 
		0.1157940998673439f, -0.13399016857147217f, -0.07585666328668594f, 0.04201135039329529f, 0.0842231810092926f, 
		-0.08451703190803528f, -0.1298704296350479f, 0.09324366599321365f, -0.1959095150232315f, 0.015195116400718689f, 
		0.06440269201993942f, 0.05701041966676712f, 0.04010261595249176f, -0.16355347633361816f, 0.08155671507120132f, 
		-0.13814455270767212f, -0.18344014883041382f, 0.07422870397567749f, 0.07393217086791992f, -0.1385427862405777f, 
		0.13756565749645233f, -0.04217509180307388f, -0.10421940684318542f, -0.09936689585447311f, -0.0228408370167017f, 
		0.033407699316740036f, 0.03241182863712311f, 0.049757491797208786f, 0.19236651062965393f, -0.09474193304777145f, 
		-0.1536821722984314f, 0.03032042272388935f, -0.20618510246276855f, -0.028646523132920265f, -0.20956268906593323f, 
		-0.02238532528281212f, 0.01811889000236988f, 0.11050179600715637f, 0.12138479202985764f, 0.06395352631807327f, 
		-0.07365432381629944f, -0.027894647791981697f, 0.13325287401676178f, 0.02923029661178589f, -0.1759251207113266f, 
		-0.03022516891360283f, -0.07568168640136719f, 0.09818653017282486f, -0.042806584388017654f, -0.11994786560535431f, 
		-0.04318574443459511f, 0.1591957062482834f, 0.1652638465166092f, -0.08754082769155502f, -0.10875583440065384f, 
		-0.02597302570939064f, -0.10814148187637329f, 0.011553247459232807f, -0.10578766465187073f, -0.15845094621181488f, 
		0.09939564019441605f, -0.0005198424332775176f, 0.056070055812597275f, -0.02287915162742138f, 0.11002707481384277f, 
		0.17605532705783844f, 0.0028592015150934458f, 0.13413086533546448f, -0.002037236699834466f, -0.17181743681430817f, 
		0.03457745537161827f, 0.1340029537677765f, 0.08389242738485336f, -0.010218750685453415f, -0.11192652583122253f, 
		0.0063787829130887985f, -0.10666109621524811f, -0.06148245185613632f, -0.21182836592197418f, 0.026636214926838875f, 
		0.11680374294519424f, -0.06474826484918594f, -0.13353443145751953f, 0.14866572618484497f, 0.08894407004117966f, 
		-0.17377562820911407f, 0.02557418867945671f, -0.1669929325580597f, -0.034538134932518005f, -0.02511582523584366f, 
		-0.14204812049865723f, 0.15360943973064423f, -0.04682799056172371f, -0.15209202468395233f, 0.1312553435564041f, 
		0.1097353845834732f, 0.11550617218017578f, -0.19840236008167267f, -0.020689308643341064f, 0.2089851349592209f, 
		-0.03768578916788101f, -0.235712930560112f, 0.14132583141326904f, -0.1324259638786316f, 0.06225637346506119f, 
		0.044643063098192215f, 0.14157557487487793f, -0.16338489949703217f, 0.10502436757087708f, 0.07054902613162994f, 
		-0.10882563889026642f, 0.12699224054813385f, -0.13456474244594574f, 0.09695439785718918f, -0.15242405235767365f, 
		0.06442871689796448f, 0.056564733386039734f, 0.0893527939915657f, -0.03471727296710014f, 0.08305894583463669f, 
		-0.03980686143040657f, 0.1369500607252121f, -0.04822538048028946f, 0.09544534236192703f, 0.022910194471478462f, 
		0.057078756392002106f, -0.13582468032836914f, 0.08371388167142868f, -0.07842954248189926f, 0.09617781639099121f, 
		0.12442878633737564f, 0.16529889404773712f, 0.07062752544879913f, 0.08826814591884613f, 0.10896725952625275f, 
		-0.06268288195133209f, -0.023567073047161102f, 0.05812399834394455f, 0.13787120580673218f, 0.1581760197877884f, 
		0.17111891508102417f, -0.11725884675979614f, 0.07246320694684982f, -0.1386135220527649f, -0.012976438738405704f, 
		0.08086582273244858f, 0.11953154951334f, -0.10046012699604034f, 0.002224295400083065f, 0.10790565609931946f, 
		-0.1910572201013565f, 0.038436923176050186f, -0.13763536512851715f, -0.23217134177684784f, 0.07530412077903748f, 
		0.118730828166008f, 0.031091423705220222f, 0.15645836293697357f, -0.05711805447936058f, 0.039199456572532654f, 
		-0.0647941529750824f, -0.06559217721223831f, -0.08037612587213516f, 0.03194268420338631f, -0.0077185556292533875f, 
		0.05149361491203308f, -0.05087781697511673f, -0.016966015100479126f, 0.015042356215417385f, -0.040892716497182846f, 
		0.07309818267822266f, 0.13776224851608276f, 0.1759168952703476f, 0.017089061439037323f, -0.12279999256134033f, 
		0.010236760601401329f, -0.06744930148124695f, -0.16831029951572418f, -0.020283007994294167f, -0.04740186035633087f, 
		0.08464295417070389f, -0.06667976826429367f, -0.010667841881513596f, 0.025269323959946632f, 0.18669207394123077f, 
		-0.11023040860891342f, -0.02136174775660038f, -0.10847027599811554f, 0.13841131329536438f, -0.039072949439287186f, 
		-0.01719760335981846f, 0.03093894198536873f, -0.1542430967092514f, 0.049843013286590576f, -0.03698746860027313f, 
		-0.1285361498594284f, -0.009593215771019459f, -0.08105677366256714f, 0.025723302736878395f, -0.10791634768247604f, 
		-0.14668600261211395f, 0.015004735440015793f, -0.1528502255678177f, 0.002573247766122222f, -0.0300404354929924f, 
		-0.08566555380821228f, -0.14799296855926514f, -0.03825521841645241f, 0.07648652046918869f, 0.02232806384563446f, 
		-0.018675951287150383f, 0.03667112812399864f, 0.12399834394454956f, -0.11457963287830353f, 0.02368689328432083f, 
		0.07456107437610626f, -0.11904624104499817f, -0.02456522360444069f, 0.082298144698143f, -0.11589062213897705f, 
		-0.1548594981431961f, -0.04584210366010666f, 0.1255825310945511f, -0.041917528957128525f, -0.00839846022427082f, 
		-0.16612927615642548f, -0.12235195189714432f, -0.14268724620342255f, -0.020943323150277138f, -0.04533451050519943f, 
		0.15417614579200745f, -0.2417491376399994f, -0.1090649664402008f, 0.11571778357028961f, 0.023496797308325768f, 
		-0.0701112374663353f, -0.12763231992721558f, 0.027557559311389923f, -0.05973241105675697f, -0.06612338125705719f, 
		-0.037049151957035065f, 0.050074927508831024f, -0.07646039873361588f, -0.1427341252565384f, -0.07297897338867188f, 
		-0.10919144749641418f, -0.20651958882808685f, -0.11395164579153061f, 0.05687859281897545f, -0.044678330421447754f, 
		-0.0656910315155983f, -0.07890778034925461f, 0.07924406230449677f, 0.14524729549884796f, -0.010548573918640614f, 
		0.019782382994890213f, 0.07171904295682907f, 0.1354949027299881f, 0.04908161982893944f, -0.16937458515167236f, 
		0.07877088338136673f, -0.07915038615465164f, 0.02063547447323799f, 0.0628165602684021f, -0.20598718523979187f, 
		0.038762375712394714f, -0.0508524514734745f, -0.07121741026639938f, -0.10918255150318146f, 0.16096074879169464f, 
		-0.037203557789325714f, 0.06343784183263779f, -0.021467821672558784f, 0.15392440557479858f, -0.1474214345216751f, 
		-0.16356803476810455f, -0.027566708624362946f, -0.12426947802305222f, 0.16005201637744904f, 0.07353415340185165f, 
		-0.045105792582035065f, 0.05431882664561272f, -0.10402876138687134f, 0.09736772626638412f, -0.23169289529323578f, 
		0.16990900039672852f, 0.023889128118753433f, 0.1021277979016304f, 0.05818186700344086f, 0.10478054732084274f, 
		0.036332808434963226f, -0.045720674097537994f, -0.09548743814229965f, -0.023733684793114662f, -0.03995288163423538f, 
		0.05914095789194107f, -0.13113993406295776f, 0.14362938702106476f, -0.15982463955879211f, 0.04382700100541115f, 
		-0.11954652518033981f, -0.04767594859004021f, -0.11108522117137909f, 0.1595916897058487f, 0.07088868319988251f, 
		-0.10448312759399414f, -0.008035153150558472f, 0.1398160606622696f, -0.04312103986740112f, 0.15107236802577972f, 
		0.0860167071223259f, -0.13767318427562714f, 0.012754003517329693f, -0.07518915086984634f, -0.010711361654102802f, 
		-0.15544502437114716f, -0.1256391853094101f, -0.09865818917751312f, 0.045820996165275574f, 0.01973659172654152f, 
		-0.07317961752414703f, 0.04648549109697342f, -0.0935327485203743f, 0.03509236499667168f, 0.02328086458146572f, 
		0.15255282819271088f, 0.06790927797555923f, 0.004861490335315466f, -0.061285629868507385f, 0.1130252331495285f, 
		0.032284535467624664f, 0.05404826998710632f, -0.05192101001739502f, -0.09113919734954834f, -0.14017069339752197f, 
		0.11805520951747894f, 0.07048527151346207f, 0.1565818041563034f, -0.14656434953212738f, -0.08786871284246445f, 
		-0.029454372823238373f, 0.03530092164874077f, 0.12255990505218506f, 0.0784006118774414f, 0.0155316898599267f, 
		-0.13575877249240875f, 0.02793130837380886f, 0.016131363809108734f, -0.10532230883836746f, 0.10203306376934052f, 
		0.12545178830623627f, 0.048167016357183456f, -0.16106641292572021f, 0.08802676945924759f, -0.1163325384259224f, 
		0.10014259070158005f, 0.16503065824508667f, 0.059515856206417084f, 0.08691558986902237f, -0.09474226087331772f, 
		-0.0744926705956459f, 0.14442738890647888f, 0.11731450259685516f, 0.06865542382001877f, -0.12449704855680466f, 
		-0.11374179273843765f, -0.07991605252027512f, 0.002196115907281637f, 0.14184223115444183f, 0.004942907020449638f, 
		0.17640328407287598f, -0.12453382462263107f, -0.0014252465916797519f, 0.12122434377670288f, -0.1569833755493164f, 
		-0.09424769878387451f, -0.15123580396175385f, -0.1328287273645401f, 0.030621862038969994f, 0.1589052379131317f, 
		-0.14358192682266235f, -0.14446236193180084f, -0.00975707545876503f, -0.008783224038779736f, -0.11054585874080658f, 
		0.035250525921583176f, 0.04498543590307236f, 0.003283646423369646f, -0.14808593690395355f, 0.041842371225357056f, 
		0.05887893959879875f, 0.14077703654766083f, -0.01721148006618023f, 0.0996563509106636f, 0.14640305936336517f, 
		-0.0405731126666069f, -0.10769787430763245f, 0.027666332200169563f, -0.024174120277166367f, 0.10303470492362976f, 
		0.1991835981607437f, 0.10805623233318329f, -0.11867856234312057f, 0.08182814717292786f, -0.054258156567811966f, 
		0.08223951607942581f, 0.11521783471107483f, 0.058045364916324615f, 0.20217885076999664f, 0.030995415523648262f, 
		-0.17417190968990326f, 0.12576673924922943f, 0.10864607989788055f, 0.015205099247395992f, -0.03374277800321579f, 
		-0.09580663591623306f, -0.10751115530729294f, -0.0981573686003685f, -0.08719702810049057f, 0.1235487163066864f, 
		-0.08508951961994171f, 0.10687283426523209f, 0.09977252036333084f, 0.02341894805431366f, -0.1894182562828064f, 
		-0.12059098482131958f, -0.0749838724732399f, 0.06931938976049423f, -0.10069671273231506f, -0.08653216809034348f, 
		-0.13832826912403107f, -0.07390502840280533f, -0.14326490461826324f, -0.08099354803562164f, -0.039389196783304214f, 
		-0.07890862226486206f, -0.09791486710309982f, 0.10116264224052429f, 0.04992324858903885f, 0.01207378227263689f, 
		-0.04115217551589012f, -0.12013661861419678f, -0.1301853358745575f, -0.07562314718961716f, -0.09061452001333237f, 
		-0.1843232363462448f, -0.06285880506038666f, 0.008328632451593876f, -0.020552542060613632f, 0.06011616066098213f, 
		0.07795816659927368f, 0.0643077939748764f, -0.16116544604301453f, 0.02780132368206978f, 0.15763655304908752f, 
		-0.011488747783005238f, 0.0708589032292366f, 0.13753074407577515f, -0.14292310178279877f, 0.04541195556521416f, 
		-0.01922624744474888f, -0.05574304610490799f, 0.15088531374931335f, -0.07890361547470093f, 0.0036400503013283014f, 
		-0.06603948026895523f, 0.14775420725345612f, 0.12336548417806625f, -0.09531360864639282f, -0.012366588227450848f, 
		0.016622090712189674f, -0.1276850551366806f, -0.010030262172222137f, 0.06140080839395523f, -0.06362376362085342f, 
