/*
  AIfES: Configuration file automatically generated from AIfES-Converter
  https://github.com/Fraunhofer-IMS/AIfES-Converter

  Add this file to your IDE with the aifes_e_f32_fnn.h file

  Copyright (C) 2022  Fraunhofer Institute for Microelectronic Circuits and Systems.
  All rights reserved.
  AIfES-Converter is free software: you can redistribute it and/or modify
  it under the terms of the GNU Affero General Public License as published by
  the Free Software Foundation, either version 3 of the License, or
  (at your option) any later version.
  This program is distributed in the hope that it will be useful,
  but WITHOUT ANY WARRANTY; without even the implied warranty of
  MERCHANTABILITY or FITNESS FOR A PARTICULAR PURPOSE.  See the
  GNU Affero General Public License for more details.
  You should have received a copy of the GNU Affero General Public License
  along with this program.  If not, see <https://www.gnu.org/licenses/>.
*/
#ifndef AIFES_E_F32_WEIGHTS
#define AIFES_E_F32_WEIGHTS


const float aifes_e_f32_flat_weights[] = {0.08125554770231247f, -0.06431657820940018f, -0.3279365301132202f, 0.15672597289085388f, -0.2004161775112152f, 0.06478625535964966f, 
		0.16314652562141418f, -0.056811485439538956f, 0.16594798862934113f, -0.33260080218315125f, -0.10426822304725647f, 
		0.04993751645088196f, 0.11646229773759842f, 0.01154810469597578f, -0.06726749241352081f, -0.10940372943878174f, 
		-0.02286655828356743f, 0.29497021436691284f, 0.44567567110061646f, -0.2088022083044052f, -0.018469786271452904f, 
		-0.4425751268863678f, -0.026188068091869354f, 0.07559916377067566f, -0.27360355854034424f, 0.06280502676963806f, 
		-0.15675696730613708f, 0.022816723212599754f, -0.03293271362781525f, -1.26002836227417f, -0.34756314754486084f, 
		-0.027402827516198158f, 0.058225154876708984f, -0.07281135022640228f, 0.18606221675872803f, -0.008834060281515121f, 
		0.3319714367389679f, -0.13833439350128174f, -0.25460386276245117f, 0.03324279189109802f, -0.2656668424606323f, 
		0.1745780110359192f, 0.012119189836084843f, 0.08596371859312057f, 0.07429619133472443f, -0.023790115490555763f, 
		-0.244058296084404f, -0.014061419293284416f, 0.02859407477080822f, 0.2858058214187622f, -0.2833814024925232f, 
		0.35501646995544434f, 0.02665286511182785f, -0.3676864206790924f, -0.006385325454175472f, 0.48503828048706055f, 
		-0.18776997923851013f, 0.10090441256761551f, -0.06242500618100166f, -0.22284968197345734f, -0.1540284901857376f, 
		0.049120619893074036f, 0.15116554498672485f, 0.015312256291508675f, -0.989492654800415f, -0.2847999036312103f, 
		-0.246359184384346f, -0.03258562833070755f, -0.23315559327602386f, -0.10696427524089813f, -0.3341095447540283f, 
		-0.06803279370069504f, -0.1714707612991333f, -0.025980792939662933f, -0.03625458478927612f, -0.003454355988651514f, 
		-0.14255443215370178f, 0.21358877420425415f, -0.06496993452310562f, 0.15156899392604828f, -0.10800106823444366f, 
		-0.25970709323883057f, -0.40840211510658264f, -0.37093737721443176f, -0.06967934221029282f, 0.24732980132102966f, 
		0.0020867856219410896f, -0.39162808656692505f, 0.11859551072120667f, -0.09371079504489899f, -0.011661008931696415f, 
		0.2847190201282501f, 0.19858600199222565f, -1.5711300373077393f, 0.42157846689224243f, -0.13874535262584686f, 
		0.0018285465193912387f, -0.29765328764915466f, 0.019941603764891624f, -0.18370047211647034f, -0.44512879848480225f, 
		0.03208369016647339f, 0.09250082075595856f, 0.10637575387954712f, -0.01547545101493597f, 0.1293417066335678f, 
		0.07380777597427368f, -0.7219639420509338f, -0.19561249017715454f, -0.005111245904117823f, -0.08325640857219696f, 
		0.027463868260383606f, 0.012125822715461254f, 0.050886765122413635f, -0.12119991332292557f, -1.2782891988754272f, 
		-0.19828946888446808f, 0.0015304982662200928f, 0.02102545276284218f, 0.136353000998497f, 0.052841536700725555f, 
		-0.12543638050556183f, 0.07114321738481522f, 0.03811594843864441f, -0.24609287083148956f, -0.2660704255104065f, 
		-0.22152715921401978f, -0.23676232993602753f, -0.01599494181573391f, -0.006597238127142191f, 0.07832632213830948f, 
		-0.06396803259849548f, -0.056756433099508286f, -0.17537176609039307f, -0.19942423701286316f, -0.026888489723205566f, 
		-0.17177323997020721f, -0.18544897437095642f, -0.29403433203697205f, -0.2501637935638428f, 0.043250683695077896f, 
		-0.14545407891273499f, -0.2858422100543976f, -0.145040825009346f, 0.07148946076631546f, -0.0826723724603653f, 
		-0.4427638649940491f, -0.25142422318458557f, -0.20567253232002258f, -0.037038806825876236f, 0.10522156953811646f, 
		-0.5574411153793335f, -0.05000314116477966f, 0.1572597473859787f, -0.36214619874954224f, -0.20327216386795044f, 
		0.14309161901474f, -0.048765264451503754f, 0.044231027364730835f, 0.14163854718208313f, 0.18351531028747559f, 
		0.04208824411034584f, -0.2767210900783539f, -0.29275718331336975f, 0.09742352366447449f, -0.07906454801559448f, 
		0.016892224550247192f, 0.20111745595932007f, 0.3488081395626068f, -0.24553576111793518f, 0.28033432364463806f, 
		0.15967679023742676f, -0.013712292537093163f, -0.12193826586008072f, 0.20865678787231445f, -0.046850576996803284f, 
		-0.24081584811210632f, -0.28809645771980286f, -0.31128451228141785f, -0.28954556584358215f, -0.18817707896232605f, 
		0.06138256937265396f, -0.30841121077537537f, -0.08959951251745224f, -0.008905305527150631f, 0.14647537469863892f, 
		0.008929800242185593f, 0.2455558180809021f, 0.04427117109298706f, 0.17717094719409943f, -0.18212351202964783f, 
		-0.1439620554447174f, 0.10740456730127335f, 0.13173553347587585f, 0.14019626379013062f, -0.208276629447937f, 
		-0.14528033137321472f, -0.24418653547763824f, 0.21261586248874664f, -0.28797289729118347f, -0.03401780128479004f, 
		0.03608667105436325f, 0.04084101319313049f, 0.02417989820241928f, 0.021996760740876198f, 0.04837678000330925f, 
		-0.18402256071567535f, 0.16061975061893463f, 0.05580919235944748f, -0.003936471417546272f, -0.3388291895389557f, 
		0.08556650578975677f, 0.10171810537576675f, -0.13458316028118134f, 0.2420796900987625f, -0.07464638352394104f, 
		-0.04855361208319664f, 0.19494910538196564f, 0.1265220195055008f, -0.2778530418872833f, 0.2143050730228424f, 
		0.08594495058059692f, 0.08589311689138412f, 0.09953676909208298f, -0.17914864420890808f, 0.03725277632474899f, 
		0.16477298736572266f, -0.012697678059339523f, -0.24480268359184265f, 0.03135852888226509f, 0.08732616901397705f, 
		-0.13546881079673767f, -0.2589380443096161f, -0.822058379650116f, -0.2757224142551422f, -0.10391849279403687f, 
		0.008472251705825329f, -0.05157358944416046f, 0.039366696029901505f, -0.056256003677845f, 0.05007358640432358f, 
		-0.2646474838256836f, -0.030010882765054703f, -0.0933370441198349f, 0.10468131303787231f, 0.22687797248363495f, 
		-0.31166017055511475f, 0.004920800682157278f, -0.5182902216911316f, 0.004065461456775665f, -0.6633341312408447f, 
		-0.0737711489200592f, -0.24024753272533417f, 0.17676958441734314f, -0.26941537857055664f, -0.20820502936840057f, 
		-0.12613295018672943f, -0.07204142212867737f, -0.13952164351940155f, 0.09802926331758499f, -0.056017547845840454f, 
		-0.24312223494052887f, 0.007200716063380241f, -0.01673903875052929f, -0.2272379845380783f, -0.2025781124830246f, 
		0.11805221438407898f, 0.07803860306739807f, -0.09554038196802139f, -0.002691894304007292f, -0.10758013278245926f, 
		0.057366810739040375f, 0.012365646660327911f, -0.12061743438243866f, -0.09758259356021881f, -0.11167231947183609f, 
		-0.25866612792015076f, -0.37767404317855835f, 0.3413723111152649f, -0.32239803671836853f, -0.31088554859161377f, 
		-0.23298028111457825f, 0.26152682304382324f, -0.11455249786376953f, 0.3035504221916199f, -0.26756152510643005f, 
		-0.13911108672618866f, 0.0559731125831604f, 0.11582674831151962f, 0.1894320696592331f, 0.05108889564871788f, 
		-0.12971442937850952f, 0.12704336643218994f, 0.1923951506614685f, -0.10514157265424728f, 0.18803967535495758f, 
		-0.0942777618765831f, 0.21694402396678925f, 0.12911972403526306f, 0.1097329705953598f, 0.25765860080718994f, 
		-0.07122685760259628f, -0.05713150277733803f, -0.1287403106689453f, 0.10039883852005005f, 0.005844146013259888f, 
		0.061260975897312164f, -0.3379310369491577f, 0.17410264909267426f, -0.2864893674850464f, 0.06414974480867386f, 
		-0.08116044849157333f, -0.08104884624481201f, -0.07087978720664978f, -0.16764411330223083f, -0.27232736349105835f, 
		-0.2479824274778366f, 0.14450687170028687f, 0.1267697662115097f, 0.014508008025586605f, 0.06598441302776337f, 
		-0.7817881107330322f, -0.22694824635982513f, -0.017313038930296898f, -0.09715048968791962f, 0.020940124988555908f, 
		-0.019710101187229156f, 0.08440270274877548f, 0.038149576634168625f, -0.18102465569972992f, 0.015567301772534847f, 
		-0.009040477685630322f, 0.006140273530036211f, 0.1049717515707016f, -1.0169426202774048f, 0.10142296552658081f, 
		-0.03411639481782913f, 0.008359163999557495f, 0.17602451145648956f, 0.08139076828956604f, 0.1595298945903778f, 
		-0.19470500946044922f, -0.04274982213973999f, -0.04987207055091858f, 0.18189141154289246f, 0.07582636922597885f, 
		-0.28863823413848877f, 0.10429031401872635f, 0.16497711837291718f, -0.17464260756969452f, -0.17470581829547882f, 
		0.26923948526382446f, -0.234139546751976f, -0.12322085350751877f, 0.10212098807096481f, -0.03136926889419556f, 
		-0.13953633606433868f, 0.10701219737529755f, 0.06260770559310913f, 0.2663608491420746f, -0.00014435961202252656f, 
		-0.12309372425079346f, 0.10601244866847992f, -0.09517702460289001f, 0.06098559498786926f, -0.3438016474246979f, 
		0.04562124237418175f, 0.12822820246219635f, 0.1053597554564476f, 0.17663219571113586f, 0.2170809954404831f, 
		0.04265592247247696f, 0.05942053347826004f, -0.9695757627487183f, -0.14894430339336395f, -0.3503827154636383f, 
		-0.14027486741542816f, -0.1898490935564041f, -0.7535393834114075f, -0.17288854718208313f, -0.13469986617565155f, 
		-0.07771071046590805f, -0.021916989237070084f, 0.2627503573894501f, -0.1785636842250824f, -0.013378104194998741f, 
		-0.14152832329273224f, -0.4890765845775604f, 0.12616291642189026f, 0.1481947898864746f, -0.06613025814294815f, 
		-0.038508325815200806f, 0.0442190058529377f, 0.29504451155662537f, -0.013716265559196472f, -0.008077125065028667f, 
		-0.0307599063962698f, -0.011588427238166332f, 0.10304276645183563f, -0.11655411124229431f, 0.06170906499028206f, 
		-0.2826992869377136f, 0.10123766958713531f, -0.048934951424598694f, 0.027039309963583946f, -0.17188599705696106f, 
		0.0073586818762123585f, 0.12197580933570862f, -0.13330461084842682f, 0.09478865563869476f, -0.07319334149360657f, 
		0.0016030134866014123f, -0.2965279817581177f, -0.15043002367019653f, 0.04711838439106941f, 0.3044579029083252f, 
		-0.10600213706493378f, -0.07671250402927399f, 0.40878134965896606f, 0.12249603867530823f, -0.12566736340522766f, 
		-0.21428464353084564f, -0.06326673179864883f, 0.0707186907529831f, -0.3308338224887848f, -0.31947827339172363f, 
		-0.1460290253162384f, -0.27122241258621216f, -0.05986718088388443f, 0.053546056151390076f, -0.2132367193698883f, 
		-0.03806784003973007f, -0.11729470640420914f, -0.1469922512769699f, -0.009532647207379341f, -0.047618135809898376f, 
		-0.13290506601333618f, 0.10164684057235718f, 0.06129133328795433f, -0.06557340919971466f, 0.12293776124715805f, 
		-0.042100828140974045f, 0.17637582123279572f, -0.28721266984939575f, 0.10979755222797394f, 0.012603988870978355f, 
		0.0028356900438666344f, 0.1949964463710785f, -0.2609919607639313f, -0.19729317724704742f, 0.23680536448955536f, 
		-0.202505961060524f, -0.26713940501213074f, -0.05404758080840111f, 0.1560676246881485f, -0.28247150778770447f, 
		-0.08476775139570236f, -0.1810491383075714f, 0.028844458982348442f, -0.1607719361782074f, 0.07616066932678223f, 
		-0.09621189534664154f, -0.021010277792811394f, -0.9359486699104309f, -0.2599029242992401f, -0.11712801456451416f, 
		0.04474009573459625f, 0.11716468632221222f, 0.08650131523609161f, -0.25361645221710205f, -0.09321673214435577f, 
		-0.10926227271556854f, -0.018954617902636528f, 0.2717299461364746f, -0.3403793275356293f, 0.12831450998783112f, 
		-0.25439828634262085f, 0.047258343547582626f, -0.06222544610500336f, 0.3598051369190216f, -0.29478564858436584f, 
		-0.09485138952732086f, 0.03212348371744156f, -0.1579424887895584f, -0.05059896782040596f, 0.15727499127388f, 
		0.20881672203540802f, -0.02214840054512024f, -0.059253521263599396f, -0.13874734938144684f, -0.15303322672843933f, 
		0.14672255516052246f, -0.046475622802972794f, 0.08194432407617569f, -0.20538274943828583f, -0.18342728912830353f, 
		0.10727135837078094f, -0.1356242448091507f, 0.15580762922763824f, -0.2838154733181f, -0.2642640769481659f, 
		-0.07457265257835388f, 0.09207102656364441f, -0.3428340554237366f, 0.19756115972995758f, 0.4381966292858124f, 
		-0.027658045291900635f, -0.06518308073282242f, -0.07402113825082779f, -0.2671794891357422f, 0.054523006081581116f, 
		-0.11027342826128006f, -0.012227403931319714f, 0.006884366273880005f, -0.4472883939743042f, 0.18060411512851715f, 
		-0.04206367954611778f, 0.006852920167148113f, -0.15526999533176422f, -0.0629449114203453f, -0.05591891333460808f, 
		0.37348639965057373f, 0.24538613855838776f, -0.03531850129365921f, 0.03064495325088501f, -0.28825613856315613f, 
		-0.2207658290863037f, 0.05476351082324982f, -0.3287109434604645f, -0.3862399458885193f, -0.038548439741134644f, 
		-0.16943322122097015f, -0.26075392961502075f, 0.04111672192811966f, -0.21932469308376312f, 0.10893658548593521f, 
		0.1464989185333252f, -0.2111695557832718f, -0.3653215169906616f, 0.16291111707687378f, -0.16726082563400269f, 
		0.2558939456939697f, -0.10990194976329803f, -0.275727778673172f, 0.3286600112915039f, -0.16656450927257538f, 
		0.05106636509299278f, 0.10909221321344376f, 0.1258000135421753f, 0.28276827931404114f, 0.1721758097410202f, 
		-0.01887574791908264f, -0.11015188694000244f, 0.3366832137107849f, 0.013561692088842392f, -0.25654762983322144f, 
		0.08107723295688629f, 0.10385822504758835f, -0.26519259810447693f, -0.23424342274665833f, -0.18586304783821106f, 
		-0.13480913639068604f, -0.3864143192768097f, -0.3141421973705292f, 0.007272152230143547f, -0.18574844300746918f, 
		-0.24351106584072113f, -0.2468005120754242f, 0.30557897686958313f, 0.048527542501688004f, 0.08008149266242981f, 
		-0.07715216279029846f, -0.21969617903232574f, -0.2532920837402344f, -0.17535148561000824f, -0.3364030718803406f, 
		-0.05851943790912628f, -0.016699293628335f, -0.19142042100429535f, 0.009124426171183586f, -0.002982196630910039f, 
		0.06559859961271286f, -0.11796519160270691f, -0.10946543514728546f, 0.4787811040878296f, -0.008755087852478027f, 
		-0.004220899194478989f, -0.12582260370254517f, -0.1995071917772293f, -0.12179449200630188f, -0.0650254487991333f, 
		-0.08713492006063461f, -0.3556228578090668f, -0.16700881719589233f, 0.05433059111237526f, -0.2985580563545227f, 
		-0.3577158451080322f, -0.15016742050647736f, -0.31048500537872314f, 0.009866328909993172f, -0.03478026017546654f, 
		0.10378047078847885f, -0.3765280246734619f, 0.05777014046907425f, -0.36832937598228455f, -0.15853162109851837f, 
		-0.10732084512710571f, -0.32190045714378357f, 0.1031399592757225f, 0.016841843724250793f, -0.027576172724366188f, 
		0.05123606696724892f, 0.14370842278003693f, -0.07668498158454895f, -0.03464287146925926f, -0.2788461446762085f, 
		-0.09318087995052338f, 0.06834205240011215f, -0.028303023427724838f, 0.0667661800980568f, 0.07722193747758865f, 
		0.2664912939071655f, -0.29508641362190247f, 0.07738371938467026f, -0.25744354724884033f, -0.04629053175449371f, 
		0.10102207958698273f, -0.1854196935892105f, -0.007890289649367332f, 0.08862970769405365f, 0.07431195676326752f, 
		0.03406035900115967f, -0.1665162742137909f, 0.0727357268333435f, -0.3986454904079437f, -0.053275562822818756f, 
		0.24673007428646088f, -0.14911267161369324f, -0.3078102767467499f, -0.27758949995040894f, 0.14771614968776703f, 
		-0.1590893566608429f, -0.016614699736237526f, -0.24903209507465363f, 0.07523258775472641f, -0.28079506754875183f, 
		0.05100492760539055f, 0.06546273827552795f, -0.8252434730529785f, -0.12550821900367737f, 0.12436792254447937f, 
		-0.1635434925556183f, -0.1584375947713852f, -0.07526596635580063f, -0.00787375122308731f, 0.19031329452991486f, 
		-0.14518290758132935f, 0.04466179013252258f, -0.049333930015563965f, -0.17094697058200836f, -0.015612299554049969f, 
		-0.0872872844338417f, 0.111307792365551f, -0.2695862948894501f, 0.1373332291841507f, -0.07557296752929688f, 
		-0.019055452197790146f, -0.21969491243362427f, 0.01695123314857483f, -0.07002823799848557f, 0.018838075920939445f, 
		-0.12984144687652588f, -0.1878369301557541f, 0.06170673668384552f, -0.07112081348896027f, -0.023175086826086044f, 
		-0.044605374336242676f, 0.20239292085170746f, -0.31711235642433167f, 0.08113210648298264f, -0.1373400092124939f, 
		-0.26576149463653564f, 0.06903908401727676f, -0.020744044333696365f, -0.11592782288789749f, 0.06676802039146423f, 
		-0.2934703528881073f, 0.004671119153499603f, -0.4011727273464203f, -0.2674713432788849f, -0.2943742871284485f, 
		-0.19017532467842102f, -0.8787140846252441f, 0.2736031413078308f, -0.01540434081107378f, 0.18354013562202454f, 
		-0.11104130744934082f, -0.03336617350578308f, 0.03183627128601074f, -0.04400169104337692f, -0.009264920838177204f, 
		-0.1436130404472351f, 0.07393094152212143f, 0.025338707491755486f, 0.042219847440719604f, -0.3024052679538727f, 
		-0.06962692737579346f, -0.1102452278137207f, 0.21198612451553345f, 0.30226579308509827f, -0.19758480787277222f, 
		-0.13261005282402039f, 0.13165609538555145f, -0.021231643855571747f, -0.21860113739967346f, 0.21723611652851105f, 
		-0.014599770307540894f, -0.2619298994541168f, -0.035528264939785004f, -0.2417038083076477f, -0.08344735205173492f, 
		0.0755881816148758f, 0.15470419824123383f, -0.005063491873443127f, -0.2810470163822174f, 0.16325423121452332f, 
		-0.20649603009223938f, -0.27111077308654785f, -0.07319584488868713f, -0.3131217360496521f, -0.04673769697546959f, 
		-0.2496112436056137f, -0.15283417701721191f, 0.2712595760822296f, -0.018095586448907852f, 0.01854953169822693f, 
		-0.027966737747192383f, -0.17084425687789917f, -0.05650182440876961f, -0.1703580915927887f, -0.11589831858873367f, 
		0.09416055679321289f, 0.09392675757408142f, 0.15202587842941284f, -0.0881967842578888f, 0.01048209983855486f, 
		0.0251170564442873f, -0.30663642287254333f, -0.36693501472473145f, -0.29671141505241394f, -0.14244721829891205f, 
		-0.11247392743825912f, -0.27880236506462097f, 0.4871468245983124f, 0.05481862276792526f, -0.03184783458709717f, 
		-0.029925500974059105f, -0.10824847221374512f, 0.20233123004436493f, 0.004789111670106649f, 0.425607293844223f, 
		0.7865591645240784f, -0.11001241952180862f, -0.10300638526678085f, -0.06345300376415253f, -0.0026452839374542236f, 
		-0.10479115694761276f, -0.3220798075199127f, -0.5092378854751587f, -0.22412924468517303f, -0.20432443916797638f, 
		-0.31749001145362854f, -0.010197198949754238f, 0.40963536500930786f, -0.30338215827941895f, 0.7629398107528687f, 
		0.10724712908267975f, 0.15884782373905182f, -0.043398648500442505f, 0.10897704213857651f, 0.007629441563040018f, 
		0.3781287968158722f, -0.08957049995660782f, 0.14092743396759033f, 0.3351472318172455f, -0.09225542098283768f, 
		-0.7601222991943359f, -0.2688238322734833f, 0.04750879853963852f, -0.05376735329627991f, 0.003115789033472538f, 
		-0.18610800802707672f, -0.19349192082881927f, -0.001968884374946356f, 0.9922257661819458f, -0.01069139875471592f, 
		-0.06452781707048416f, 0.45019546151161194f, -0.59160977602005f, -0.2844725549221039f, -0.08449191600084305f, 
		-0.8369402885437012f, 0.3592906594276428f, -0.009748253040015697f, 1.1244502067565918f, -0.4270356595516205f, 
		0.09484323859214783f, 0.7529699802398682f, 0.10901907831430435f, -0.021534571424126625f, -0.11599243432283401f, 
		-0.24424020946025848f, -0.04240868613123894f, -0.24668486416339874f, -0.32681506872177124f, 0.2515009939670563f, 
		-0.24276863038539886f, -0.12992620468139648f, 0.24201035499572754f, -0.8711509108543396f, -0.1011146679520607f, 
		0.10781741887331009f, -0.2980393171310425f, -0.202024444937706f, -0.1753634512424469f, -0.3305452764034271f, 
		-0.22752296924591064f, -0.308102548122406f, 0.3973069489002228f, -0.08634086698293686f, -0.15106560289859772f, 
		-0.15205474197864532f, -0.25900354981422424f, 0.2546457350254059f, -0.09000670909881592f, -0.6453984379768372f, 
		-0.1716669648885727f, -0.2802222967147827f, -0.025087865069508553f, -0.12396860122680664f, -0.031474895775318146f, 
		0.5090486407279968f, -0.5283648371696472f, -0.03976401314139366f, -0.5401344895362854f, 0.008454964496195316f, 
		0.1491967886686325f, -0.20658954977989197f, 0.7813003063201904f, 0.47309553623199463f, -0.05403345078229904f, 
		-0.07515192031860352f, 0.1747501641511917f, 0.15479524433612823f, 0.06978659331798553f, 0.08522249758243561f, 
		-0.20997264981269836f, -0.06437356770038605f, -0.10027047991752625f, 0.467246949672699f, 0.20968563854694366f, 
		0.0171463992446661f, 0.11660048365592957f, 0.12121949344873428f, 0.07306024432182312f, 0.19720542430877686f, 
		0.20788991451263428f, -0.0808238685131073f, -0.7068769931793213f, -0.16038432717323303f, -0.10340599715709686f, 
		-0.15217222273349762f, 0.12204907834529877f, 0.014515955001115799f, -0.010026838630437851f, -0.310106486082077f, 
		-0.04793033003807068f, -0.18889464437961578f, 0.478062242269516f, 0.04808232560753822f, -0.02215324155986309f, 
		-0.040821731090545654f, 0.10361527651548386f, 0.29214149713516235f, 0.1899585723876953f, -0.2302781641483307f, 
		-0.002738699084147811f, 0.18464019894599915f, -0.14126598834991455f, 0.08357453346252441f, -0.18400435149669647f, 
		0.11825189739465714f, -0.2018241137266159f, -0.02236318588256836f, 0.9152691960334778f, 0.2509530186653137f, 
		0.2362440824508667f, -0.2818988263607025f, -0.16579027473926544f, -0.17410480976104736f, -0.16143806278705597f, 
		-0.2329276204109192f, 0.0156560055911541f, 0.24044735729694366f, 0.02246301807463169f, -0.20477637648582458f, 
		-0.28782036900520325f, 0.12580136954784393f, 0.07226216793060303f, -0.0033240863122045994f, 0.21875950694084167f, 
		0.019475718960165977f, -0.09118692576885223f, 0.13720855116844177f, 0.12907829880714417f, -0.17718076705932617f, 
		-1.6221601963043213f, -0.08075257390737534f, 0.14437225461006165f, 0.0866805911064148f, 0.016720322892069817f, 
		0.005890973843634129f, 0.08153551071882248f, -0.16985848546028137f, 0.17756570875644684f, 0.14605925977230072f, 
		0.0009377521346323192f, -0.17027080059051514f, -0.04426451027393341f, -0.017699722200632095f, -0.11104092001914978f, 
		-0.01116691343486309f, -0.37999579310417175f, -0.04078807681798935f, 0.08425765484571457f, -0.14450708031654358f, 
		0.06174672394990921f, 0.028624922037124634f, 0.038957901298999786f, -0.21038278937339783f, 0.22046300768852234f, 
		0.13141709566116333f, -0.061800871044397354f, -0.08671192824840546f, -0.06743450462818146f, 0.01799176074564457f, 
		0.11483671516180038f, -0.10390741378068924f, -0.097808837890625f, -0.07025188207626343f, 0.19548006355762482f, 
		0.08191363513469696f, 0.37717458605766296f, 0.10396456718444824f, 0.12090202420949936f, -0.3012079894542694f, 
		0.03709721565246582f, -0.12271060794591904f, 0.10483662039041519f, -0.12562009692192078f, 0.052582014352083206f, 
		0.026805972680449486f, -0.24837817251682281f, 0.114064060151577f, 0.24164657294750214f, -0.21741631627082825f, 
		-0.1157367080450058f, -0.04465462639927864f, -0.03369460627436638f, -0.9548897743225098f, -0.19760684669017792f, 
		-0.3347967565059662f, -0.23044130206108093f, 0.1972055286169052f, 0.13963040709495544f, 0.07272803038358688f, 
		-0.19166360795497894f, -0.2793418765068054f, -0.19479955732822418f, -0.0598425529897213f, -0.278532475233078f, 
		0.19494768977165222f, -0.03182952478528023f, 0.03911695256829262f, 0.06282865256071091f, 0.20688609778881073f, 
		-0.8240459561347961f, 0.11106105893850327f, 0.09357866644859314f, -0.4056593179702759f, -0.37828168272972107f, 
		-0.11679819971323013f, -0.8137989640235901f, 0.019767777994275093f, -0.04235328733921051f, 0.03109193593263626f, 
		0.16809751093387604f, -0.018337737768888474f, 0.10111986845731735f, 0.2128428816795349f, -0.18101218342781067f, 
		-0.2530238628387451f, -0.08000043779611588f, -0.3297854959964752f, -0.2127380222082138f, -0.45228612422943115f, 
		-0.1289214938879013f, 0.033261142671108246f, -0.18990570306777954f, -0.2770172357559204f, -0.030707042664289474f, 
		0.012186405248939991f, -0.25434547662734985f, -0.16146007180213928f, -0.17312252521514893f, 0.24578391015529633f, 
		0.26410478353500366f, -0.2752127945423126f, 0.3891059160232544f, 0.00904072541743517f, -0.277875155210495f, 
		-0.12558092176914215f, 0.0014627896016463637f, 0.032358184456825256f, 0.189300075173378f, 0.027281751856207848f, 
		0.1172989010810852f, -0.18665897846221924f, -0.02275664545595646f, -0.04131153225898743f, -0.0659041777253151f, 
		-0.10684186220169067f, -0.18321748077869415f, 0.08150427788496017f, -0.10974826663732529f, -0.21528193354606628f, 
		0.20219065248966217f, -0.247839093208313f, 0.05792636424303055f, 0.25448668003082275f, -0.08573403209447861f, 
		-0.060392167419195175f, -0.3416731059551239f, -0.2064305990934372f, 0.09681319445371628f, -0.32752782106399536f, 
		-0.03606509789824486f, -0.2736651599407196f, 0.24064382910728455f, 0.03335089981555939f, 0.3852818012237549f, 
		0.13183696568012238f, -0.05691399797797203f, 0.2837543189525604f, -0.00836535170674324f, -0.2669028341770172f, 
		-0.44062966108322144f, -0.23018157482147217f, -0.012123207561671734f, -0.08616004884243011f, 0.25534588098526f, 
		0.5542870759963989f, 0.18321935832500458f, 0.39962339401245117f, -0.2902236878871918f, 0.2496863603591919f, 
		-0.010310136713087559f, 0.06633936613798141f, -0.8400489091873169f, 0.15691356360912323f, -0.147745743393898f, 
		-0.06837363541126251f, 0.14649264514446259f, 0.4960382282733917f, -0.2186012715101242f, 0.7080391049385071f, 
		-0.13313964009284973f, -0.27396297454833984f, 0.055504560470581055f, 0.2655194103717804f, -0.012085665948688984f, 
		0.3923368453979492f, 0.09955062717199326f, -0.29987215995788574f, -0.21549583971500397f, -0.1392868310213089f, 
		-0.8038184642791748f, -0.27408191561698914f, 0.10838650166988373f, -0.2546940743923187f, -0.7131587266921997f, 
		-0.13565687835216522f, 0.07621385902166367f, -0.30198127031326294f, 0.6319591999053955f, 0.0695701315999031f, 
		-0.2079784870147705f, 0.35291165113449097f, 0.3498416543006897f, -0.08207756280899048f, -0.16528789699077606f, 
		-0.44427481293678284f, 0.05411895364522934f, -0.3664444088935852f, 0.9613840579986572f, -0.199241504073143f, 
		0.0704667866230011f, 0.5133345127105713f, 0.1289118379354477f, -0.2230251431465149f, -0.21945029497146606f, 
		-0.04859541356563568f, 0.24144788086414337f, 0.0013735619140788913f, 0.07024122029542923f, -0.16934575140476227f, 
		-0.023751765489578247f, -0.29060670733451843f, -0.05399489402770996f, -0.01180651318281889f, -0.08591464161872864f, 
		-0.2221919745206833f, -0.0893242135643959f, 0.0291462242603302f, -0.1145535260438919f, -0.006533387117087841f, 
		0.22508281469345093f, -0.22478392720222473f, 0.28848326206207275f, -0.3505910038948059f, 0.16324937343597412f, 
		0.10612146556377411f, 0.08793990314006805f, -0.04733629524707794f, -0.10286551713943481f, -0.6126918196678162f, 
		-0.24716150760650635f, 0.1790665090084076f, 0.04349708557128906f, 0.022403361275792122f, 0.12462082505226135f, 
		-0.17748020589351654f, 0.12263930588960648f, -0.2642344534397125f, -0.5596805810928345f, 0.0596374049782753f, 
		-0.19625020027160645f, -0.2873293161392212f, 0.5814011096954346f, 0.530974268913269f, -0.005274723283946514f, 
		0.16586938500404358f, -0.32105007767677307f, -0.17712624371051788f, 0.36131376028060913f, -0.25991082191467285f, 
		0.12361865490674973f, 0.13515515625476837f, 0.25554096698760986f, 0.5573833584785461f, -0.29788416624069214f, 
		-0.11846218258142471f, 0.02086196094751358f, -0.07409664243459702f, -0.17062760889530182f, -0.19146990776062012f, 
		-0.2701234817504883f, -0.0700245201587677f, -0.7244306206703186f, -0.05207362398505211f, -0.08617524057626724f, 
		-0.22100771963596344f, 0.005195152945816517f, 0.5535463094711304f, -0.12441056966781616f, -0.15671595931053162f, 
		-0.11439970135688782f, 0.1000906303524971f, 0.3331499397754669f, -0.1727304756641388f, 0.0036950744688510895f, 
		-0.32826900482177734f, 0.09116695821285248f, 0.28616541624069214f, 0.37937864661216736f, 0.06397509574890137f, 
		0.46918395161628723f, 0.007309377193450928f, 0.1402643918991089f, -0.06472056359052658f, -0.1570410430431366f, 
		-0.049259211868047714f, -0.2779693603515625f, -0.2700430750846863f, 0.6602604389190674f, -0.19904644787311554f, 
		-0.3024590015411377f, -0.08065543323755264f, -0.04071217402815819f, -0.03840983659029007f, 0.10859937220811844f, 
		-0.15325786173343658f, -0.10084357857704163f, -0.06226218864321709f, 0.06011262908577919f, -0.11844722926616669f, 
		-0.36798739433288574f, 0.047611303627491f, -0.021218499168753624f, 0.09076876193284988f, -0.05157279968261719f, 
		-0.08944152295589447f, -0.18342812359333038f, -0.3129393458366394f, 0.2184121459722519f, 0.019747644662857056f, 
		0.4048387110233307f, -0.14878353476524353f, -0.22699768841266632f, 0.0883072167634964f, 0.08359457552433014f, 
		-0.19324085116386414f, -0.052846480160951614f, 0.0443357452750206f, 0.06990996748209f, -0.18902918696403503f, 
		-0.06278397142887115f, -0.13869015872478485f, 0.03640368580818176f, 0.13734902441501617f, -0.07178918272256851f, 
		0.08461026102304459f, -0.1461406797170639f, -0.051783524453639984f, 0.2458764612674713f, 0.12159369885921478f, 
		0.08485762774944305f, -0.2262355238199234f, 0.04096218943595886f, -0.29744577407836914f, -0.13394485414028168f, 
		0.054750651121139526f, -0.1859475076198578f, 0.2511330246925354f, -0.014595328830182552f, 0.03836602345108986f, 
		-0.06428758054971695f, -0.16063562035560608f, 0.08104526251554489f, -0.2596433162689209f, 0.15383391082286835f, 
		-0.017823345959186554f, -0.46816951036453247f, 0.023977525532245636f, -0.21395714581012726f, -0.06740835309028625f, 
		0.014684349298477173f, 0.06636316329240799f, -1.4116709232330322f, -0.002694906899705529f, 0.08333228528499603f, 
		-0.11181066930294037f, 0.27015140652656555f, -0.12137192487716675f, -0.06257051229476929f, 0.1312321126461029f, 
		0.11740417778491974f, -0.12645134329795837f, -0.07767751812934875f, 0.3960496187210083f, -0.13410846889019012f, 
		-1.7610009908676147f, 0.07213186472654343f, -0.2284277081489563f, -0.042878568172454834f, -0.22220070660114288f, 
		0.19796231389045715f, -0.2054409384727478f, -0.022332288324832916f, -0.6241335272789001f, -0.21295921504497528f, 
		-0.04264801740646362f, 0.021383527666330338f, -0.1345132440328598f, 0.09824693948030472f, 0.21217963099479675f, 
		0.18281149864196777f, 0.13702985644340515f, 0.06382360309362411f, 0.07764226943254471f, -0.0911082923412323f, 
		-1.2609179019927979f, -0.05472097918391228f, 0.0798209086060524f, -0.36175525188446045f, -0.07964041084051132f, 
		-0.5538845658302307f, -0.22969010472297668f, -0.127844899892807f, -0.08115913718938828f, -0.10846032202243805f, 
		0.2111116349697113f, -0.21251152455806732f, -2.088029146194458f, 0.38938334584236145f, 0.1743035763502121f, 
		0.03828049823641777f, 0.007265256252139807f, 0.026181016117334366f, -0.1932811290025711f, -0.22017645835876465f, 
		-0.03860068321228027f, 0.0726737231016159f, -0.07298184931278229f, 0.05078362300992012f, 0.04415907710790634f, 
		-0.22217729687690735f, -0.24458381533622742f, 0.02265920676290989f, -0.24705521762371063f, -0.1810140311717987f, 
		0.08079342544078827f, 0.13617554306983948f, 0.014346189796924591f, -0.3806629180908203f, -0.14620916545391083f, 
		-0.10086214542388916f, -0.21530643105506897f, -0.017968742176890373f, -0.06667239964008331f, -0.1083822101354599f, 
		0.08844465017318726f, 0.06808453053236008f, 0.08756162971258163f, -0.11711882054805756f, -0.18822838366031647f, 
		0.2609797418117523f, -0.028402328491210938f, 0.02938038669526577f, -0.27460554242134094f, -0.20500166714191437f, 
		-0.032160479575395584f, 0.12343057990074158f, -0.2781504988670349f, -0.16363893449306488f, -0.09202391654253006f, 
		-0.010360540822148323f, -0.24271179735660553f, -0.10854277014732361f, 0.09824705123901367f, 0.4403781592845917f, 
		0.20333464443683624f, -0.23971740901470184f, 0.45327311754226685f, 0.12716956436634064f, -0.07872141897678375f, 
		-0.22653824090957642f, -0.2110375165939331f, -0.04231856018304825f, -0.10342283546924591f, 0.14904125034809113f, 
		-0.8227894902229309f, -0.25786489248275757f, -0.006381394807249308f, -0.1780323088169098f, 0.05195647478103638f, 
		0.06714165955781937f, 0.3609056770801544f, -0.08005806058645248f, -0.01736166514456272f, 0.4155541956424713f, 
		-0.276225745677948f, -0.22814208269119263f, 0.3560813069343567f, -0.009000889025628567f, -0.7266318202018738f, 
		0.019085226580500603f, -0.04141605272889137f, 0.2408391237258911f, -0.2160053253173828f, -0.2574709355831146f, 
		0.12051117420196533f, -0.3018116354942322f, 0.08151362836360931f, -0.11729193478822708f, 0.09931757301092148f, 
		0.00022421647736337036f, -0.08768896758556366f, -0.2287708818912506f, -0.22554704546928406f, 0.21067675948143005f, 
		-0.02459472417831421f, 0.038881946355104446f, -0.28605467081069946f, -0.7432039976119995f, 0.2653285264968872f, 
		-0.25346609950065613f, -0.30360138416290283f, -0.15224015712738037f, -0.2508728504180908f, -0.13181884586811066f, 
		0.059083208441734314f, -0.28563618659973145f, 0.14406809210777283f, -1.1584856510162354f, -0.5123116374015808f, 
		-0.19156858325004578f, -0.7733896374702454f, -0.40003982186317444f, 0.22280475497245789f, 0.16383573412895203f, 
		-0.21999619901180267f, 0.2990279495716095f, 0.04168824851512909f, -0.08452529460191727f, 0.09803976863622665f, 
		0.04348139837384224f, 0.05482936277985573f, 0.22120097279548645f, 0.17097385227680206f, -0.13397295773029327f, 
		-0.22721633315086365f, 0.15293079614639282f, -0.16637788712978363f, -0.08648496866226196f, -0.06382883340120316f, 
		-0.2444521188735962f, -0.453584223985672f, 0.47087976336479187f, -0.3444908857345581f, -0.1256330907344818f, 
		0.11066865175962448f, -0.04440917819738388f, 0.061083514243364334f, -0.042647868394851685f, -0.23949572443962097f, 
		-0.4014449417591095f, -0.042290639132261276f, -0.071268729865551f, -0.05445485562086105f, 0.08484458923339844f, 
		-0.19758599996566772f, -0.20319518446922302f, 0.016720261424779892f, -0.4505399465560913f, 0.060136549174785614f, 
		-0.09726724028587341f, 0.10190129280090332f, -1.0183302164077759f, 0.278805673122406f, 0.16730113327503204f, 
		-0.0037075579166412354f, -0.3702612817287445f, -0.03308051824569702f, 0.31446781754493713f, -0.1063835397362709f, 
		0.15367509424686432f, -0.1067090705037117f, 0.13434436917304993f, -0.3987292945384979f, 0.031024476513266563f, 
		-0.08839531987905502f, -0.21124029159545898f, -0.04657363146543503f, 0.1535833775997162f, 0.07881274074316025f, 
		-0.23498038947582245f, 0.02961665391921997f, -0.20441362261772156f, 0.03217002749443054f, -0.14954566955566406f, 
		0.011830485425889492f, -0.08149854838848114f, 0.12023083120584488f, 0.0072711315006017685f, 0.051325637847185135f, 
		-0.05214335024356842f, -0.04874759912490845f, 0.43778330087661743f, -0.12977014482021332f, -0.12214915454387665f, 
		0.1075340136885643f, -0.35017621517181396f, 0.45084527134895325f, 0.23821952939033508f, -0.1352747529745102f, 
		0.5002856254577637f, 0.158189594745636f, -0.14029952883720398f, -0.05594789981842041f, 0.19683420658111572f, 
		0.020958729088306427f, 0.17154309153556824f, 0.04510927200317383f, -0.8329340219497681f, -0.4253806471824646f, 
		0.03380471467971802f, 0.14223729074001312f, -0.06861618906259537f, -0.29861685633659363f, 0.009439005516469479f, 
		0.10210011899471283f, 0.26561471819877625f, 0.048834409564733505f, -0.4314238727092743f, -0.26805591583251953f, 
		-0.09943091869354248f, 0.116181381046772f, 0.1616567224264145f, 0.059408705681562424f, 0.04850811883807182f, 
		-0.23120057582855225f, -0.25981608033180237f, 0.5409371256828308f, -3.2919225692749023f, 0.24602264165878296f, 
		-0.2630120515823364f, 0.9499468803405762f, -0.20537050068378448f, -0.04085564240813255f, -0.34398528933525085f, 
		0.2609635293483734f, -0.19790634512901306f, -0.4128345251083374f, -0.29200053215026855f, -0.3766933083534241f, 
		-0.2571101784706116f, -0.3293078541755676f, -0.3285292387008667f, -1.4989442825317383f, 0.08047764748334885f, 
		-1.3355801105499268f, -0.37637221813201904f, 0.0860978215932846f, -1.2790042161941528f, 0.25226402282714844f, 
		-0.4434671700000763f, -0.17899984121322632f, -0.1890048235654831f, 0.12753300368785858f, -2.0322182178497314f, 
		-0.2640931308269501f, 0.03161504119634628f, -0.1752045750617981f, -0.2321489006280899f, -0.2760135531425476f, 
		0.07298544049263f, -0.3392218351364136f, -1.665183424949646f, 0.11741229891777039f, -0.03388359025120735f, 
		-0.4464511275291443f, 0.30677923560142517f, -0.021704750135540962f, -0.45783308148384094f, -0.512108325958252f, 
		0.07235544919967651f, -0.21133337914943695f, -0.22434432804584503f, 0.15631167590618134f, -0.3526768684387207f, 
		-0.48895764350891113f, -0.7615273594856262f, -0.02513209916651249f, -1.853933334350586f, -0.2596323788166046f, 
		0.06970235705375671f, 0.03451896086335182f, -0.04349322244524956f, -0.00850724522024393f, -0.5365880131721497f, 
		-0.03804091364145279f, -0.7923870086669922f, 0.06983648985624313f, -0.10221803188323975f, -0.10712838172912598f, 
		-0.10400182008743286f, -0.36790305376052856f, -1.1863296031951904f, -0.17145414650440216f, 0.19917750358581543f, 
		0.16425450146198273f, -0.03110593557357788f, 0.14809651672840118f, -0.35102882981300354f, -0.20974886417388916f, 
		0.06361427158117294f, 0.24159717559814453f, -0.17267385125160217f, 0.1292056441307068f, -0.5494693517684937f, 
		-0.5492639541625977f, -0.6581238508224487f, 0.38543230295181274f, -0.5920448303222656f, -0.14686234295368195f, 
		-0.23671920597553253f, 0.1769234985113144f, -0.14942285418510437f, 0.19215945899486542f, -0.1887557953596115f, 
		0.04319089651107788f, -0.06380826234817505f, 0.054170627146959305f, -0.5518326759338379f, -0.035590268671512604f, 
		-0.3991738259792328f, -0.858165442943573f, -0.18856386840343475f, 0.017342453822493553f, -0.3868476152420044f, 
		-0.4835573434829712f, -0.2264038324356079f, -0.03797061741352081f, 0.036203622817993164f, -1.6468602418899536f, 
		0.02495640516281128f, 0.010232239961624146f, -0.5037765502929688f, 0.0215277299284935f, 0.19597870111465454f, 
		-0.013598199002444744f, -0.2180408239364624f, 0.4697265028953552f, -0.34179291129112244f, -0.3671708405017853f, 
		-0.0990050882101059f, -0.23165875673294067f, -0.4221850633621216f, -0.2320997267961502f, 0.06600610911846161f, 
		0.08564316481351852f, 0.5981647372245789f, 0.1485557109117508f, -0.2953607141971588f, 0.19075223803520203f, 
		-0.4203888475894928f, -0.2564949095249176f, -0.35926157236099243f, 0.028376802802085876f, -0.0043974933214485645f, 
		-0.213252454996109f, -1.8764888048171997f, 0.19658821821212769f, -0.5111153721809387f, -0.09340057522058487f, 
		1.0058597326278687f, 0.1385457068681717f, -0.036095164716243744f, 0.0431310199201107f, 0.11362715065479279f, 
		-0.012981190346181393f, -0.010673962533473969f, 0.17543761432170868f, -0.35928264260292053f, 0.08074542880058289f, 
		0.1431247442960739f, -0.03481090068817139f, 0.39661046862602234f, -0.2523632347583771f, 0.24453729391098022f, 
		-0.9269667863845825f, -0.0896453782916069f, 0.4993453919887543f, -0.588227391242981f, 0.11195284128189087f, 
		0.017515014857053757f, 0.21970303356647491f, -0.018377400934696198f, 0.0016979039646685123f, 0.3741039037704468f, 
		0.19796624779701233f, 0.190731942653656f, -0.032450076192617416f, -0.2572445869445801f, -1.1296327114105225f, 
		-0.08805064111948013f, 0.1557590365409851f, -0.03294418752193451f, 0.04696672409772873f, 0.2009773850440979f, 
		0.0943576917052269f, 0.015330876223742962f, -0.15523655712604523f, 0.14106392860412598f, -0.05408560112118721f, 
		-0.10354670137166977f, 0.0413837730884552f, -0.08813753724098206f, -0.24277140200138092f, 0.18339090049266815f, 
		-0.026873141527175903f, -0.24160107970237732f, 0.0954020768404007f, -1.0826081037521362f, -0.06748749315738678f, 
		0.11663887649774551f, -0.615813136100769f, -0.049300067126750946f, -0.1240369975566864f, -0.28193774819374084f, 
		-0.04848650097846985f, -0.29917988181114197f, 0.06872698664665222f, -1.2255699634552002f, -0.3353131115436554f, 
		0.014712393283843994f, -0.682408332824707f, -0.026155639439821243f, -0.14960843324661255f, -0.31614869832992554f, 
		0.023945532739162445f, 0.01017516665160656f, -0.29427069425582886f, -0.22710782289505005f, -0.23936140537261963f, 
		0.12906889617443085f, 0.18840812146663666f, -0.21321766078472137f, -0.08843596279621124f, -0.1956525593996048f, 
		0.018416330218315125f, -0.12240034341812134f, -0.03621150925755501f, -0.12829144299030304f, 0.015318217687308788f, 
		-0.15149837732315063f, -0.2441072165966034f, -0.14895951747894287f, -0.03445156663656235f, 0.10489970445632935f, 
		0.10857070982456207f, -0.19448325037956238f, 0.10425140708684921f, 0.06606682389974594f, -1.086259126663208f, 
		0.07428687810897827f, -0.15507075190544128f, 0.08613243699073792f, -0.26654988527297974f, 0.1148066595196724f, 
		0.041229866445064545f, 0.23383116722106934f, -0.30422544479370117f, -0.27137789130210876f, -0.27119654417037964f, 
		-0.46241265535354614f, -0.05552787706255913f, -0.8729283213615417f, -0.18516650795936584f, 0.10619031637907028f, 
		-0.21068112552165985f, 0.09986001998186111f, -0.2675248980522156f, 0.19594652950763702f, 0.12414330244064331f, 
		-0.016003169119358063f, -0.10021474212408066f, 0.05514974892139435f, -0.6629838347434998f, -0.09888054430484772f, 
		0.09507018327713013f, -0.19553104043006897f, -0.35868772864341736f, -0.1908825784921646f, -0.44507384300231934f, 
		0.05110335350036621f, 0.07953518629074097f, 0.14867454767227173f, -0.29422029852867126f, -0.13735763728618622f, 
		0.024106958881020546f, -0.15152350068092346f, 0.17921388149261475f, 0.12757012248039246f, 0.011447000317275524f, 
		-0.1575571596622467f, 0.11116078495979309f, -0.23603379726409912f, 0.19545668363571167f, -0.4125823676586151f, 
		-0.12169741839170456f, -0.3453301191329956f, -0.12598900496959686f, 0.04419397562742233f, -0.024411559104919434f, 
		0.2168094664812088f, -0.24531598389148712f, -0.18245142698287964f, -0.16092512011528015f, 0.16638799011707306f, 
		-0.05792618542909622f, -0.3335418701171875f, 0.021418750286102295f, -1.0760596990585327f, 0.0839911699295044f, 
		-0.37657690048217773f, -0.011112448759377003f, -0.20283114910125732f, -0.14855480194091797f, -0.6282932758331299f, 
		-0.2301354706287384f, 0.28954535722732544f, -0.5528225302696228f, -0.12756472826004028f, 0.023301899433135986f, 
		-0.045477207750082016f, 0.2396117001771927f, -0.5120998620986938f, 0.07712473720312119f, -0.5517734885215759f, 
		0.043214309960603714f, -0.06757613271474838f, 0.17538407444953918f, 0.19945062696933746f, -0.28504976630210876f, 
		0.07615593820810318f, -0.35427147150039673f, -0.022719988599419594f, -0.13470907509326935f, -0.3616964519023895f, 
		0.4350258708000183f, -0.14111918210983276f, -0.5095067024230957f, 0.117120161652565f, -0.08219358325004578f, 
		0.06421996653079987f, -0.23614531755447388f, -0.21825818717479706f, -0.0189812034368515f, 0.11995535343885422f, 
		-0.4018648564815521f, 0.03443130478262901f, -0.09781266003847122f, -0.3023805618286133f, -0.40226948261260986f, 
		0.11192397773265839f, -0.1351466327905655f, -0.14873424172401428f, -0.05218532681465149f, 0.0017699353629723191f, 
		-0.22495394945144653f, 0.03466568887233734f, -0.18566051125526428f, -0.2978121340274811f, -0.26268503069877625f, 
		-0.13983914256095886f, 0.11125718802213669f, -0.10876493155956268f, 0.09221291542053223f, -0.1442679911851883f, 
		0.2016473412513733f, 0.32741308212280273f, 0.17865057289600372f, -0.32039421796798706f, -0.2920199930667877f, 
		-0.16983866691589355f, -0.3609001636505127f, 0.5572749972343445f, -0.13503725826740265f, -0.16588343679904938f, 
		-0.12459758669137955f, -0.2892991900444031f, 0.14001618325710297f, 0.018858207389712334f, -0.18066935241222382f, 
		-0.14709621667861938f, -0.13025160133838654f, -0.25279149413108826f, 0.09975534677505493f, -0.007393268868327141f, 
		0.2916586995124817f, -0.09425420314073563f, 0.48261216282844543f, -0.2813606858253479f, 0.1958094835281372f, 
		0.03727066516876221f, 0.19562949240207672f, 0.022895604372024536f, -0.026962267234921455f, -0.14260023832321167f, 
		-0.2540529668331146f, 0.0936126857995987f, -0.12868556380271912f, 0.010464470833539963f, -0.12895949184894562f, 
		0.0361587256193161f, 0.05614010989665985f, -0.42082276940345764f, -0.05363798141479492f, -0.1945458948612213f, 
		-0.0342278927564621f, -0.12221813946962357f, -0.14886312186717987f, -0.019071850925683975f, -0.18787354230880737f, 
		0.17539824545383453f, 0.1517629325389862f, -0.04457060992717743f, -0.5441356897354126f, -0.30300644040107727f, 
		-0.21721845865249634f, -0.3273158073425293f, 0.1085251122713089f, -0.3390892446041107f, -0.17870314419269562f, 
		-0.2986348867416382f, -0.1036977544426918f, -0.25401148200035095f, 0.08090566843748093f, 0.1583208590745926f, 
		-0.056027378886938095f, -0.03693751245737076f, 0.16363514959812164f, -0.044959887862205505f, -0.21530704200267792f, 
		-0.2761826813220978f, -0.09804363548755646f, -0.029585544019937515f, -0.13219991326332092f, 0.1619303673505783f, 
		0.05447056144475937f, -0.3163619339466095f, -0.4366557002067566f, -0.10257922857999802f, 0.1589418351650238f, 
		-0.007126361131668091f, 0.012672290205955505f, -0.5276461839675903f, -0.00794749241322279f, 0.2456524521112442f, 
		0.10757928341627121f, 0.4617524743080139f, -0.32914912700653076f, -0.6486274600028992f, 0.02381652593612671f, 
		-0.3161291778087616f, -0.12450088560581207f, -0.03940665349364281f, -0.2883566617965698f, -0.3092966079711914f, 
		-0.033199112862348557f, 0.1419374644756317f, -0.05615738034248352f, -0.10969694703817368f, 0.15905365347862244f, 
		-0.06594308465719223f, -0.10285446792840958f, 0.024359865114092827f, 0.19776098430156708f, 0.2520468235015869f, 
		0.011613418348133564f, -0.017298517748713493f, 0.3670714795589447f, 0.04101740941405296f, -0.06323178112506866f, 
		0.015944667160511017f, -0.00409515667706728f, 0.048432376235723495f, 0.004481951240450144f, 0.1424936056137085f, 
		-0.8248531818389893f, -0.0070457011461257935f, 0.14426498115062714f, 1.8473564386367798f, -0.05941852182149887f, 
		-0.2415318340063095f, 0.14677542448043823f, 0.08401649445295334f, 0.0015386493178084493f, 0.01872529834508896f, 
		-0.05719105899333954f, -0.017559092491865158f, 0.3013675808906555f, 0.007201300002634525f, -0.8373757600784302f, 
		-0.0025624181143939495f, 0.0001674968661973253f, -0.002893952652812004f, 0.19198393821716309f, 0.0053496165201067924f, 
		0.18831323087215424f, 0.03787694871425629f, -0.002679797587916255f, 0.18900848925113678f, -0.0010194283677265048f, 
		0.17376048862934113f, 0.06443357467651367f, 0.01610669307410717f, -0.03673463687300682f, 0.13963840901851654f, 
		0.006083779036998749f, 0.030562222003936768f, -0.045697614550590515f, -0.8769857883453369f, 0.0026642042212188244f, 
		-0.010233650915324688f, -0.0010423550847917795f, 0.42036208510398865f, -0.07438205182552338f, 0.01285830233246088f, 
		0.12204260379076004f, -0.10033631324768066f, -0.005192662589251995f, -0.38741472363471985f, 0.39654433727264404f, 
		-0.02522331103682518f, -0.8107825517654419f, -0.2520338296890259f, 0.017665263265371323f, -0.007032857742160559f, 
		0.010187692940235138f, 0.040719542652368546f, 0.003976619802415371f, 0.4432078003883362f, 0.035290542989969254f, 
		0.008656691759824753f, 0.07782427966594696f, 0.006615844089537859f, 0.16519616544246674f, -0.006760320160537958f, 
		-0.21883486211299896f, -0.02939395047724247f, -0.06443330645561218f, 0.043967947363853455f, -0.002161406446248293f, 
		0.030341893434524536f, 0.1885310560464859f, 0.22719143331050873f, 0.04828176274895668f, -0.017359785735607147f, 
		0.05522364750504494f, -0.017378071323037148f, 0.11256688088178635f, 0.0028103215154260397f, 0.11583641916513443f, 
		0.0013241125270724297f, -0.06373722851276398f, 0.016839101910591125f, 0.013342243619263172f, -0.017578061670064926f, 
		-0.09212163835763931f, 0.11294467002153397f, 0.2142934650182724f, 0.15976101160049438f, 0.0036644034553319216f, 
		-0.03081468492746353f, -0.007631218992173672f, -0.37987205386161804f, 0.3596915900707245f, 0.04036426544189453f, 
		0.012725062668323517f, 0.004412328824400902f, -0.2249298095703125f, 0.18037602305412292f, -0.053644921630620956f, 
		-0.015250954777002335f, -0.014844576828181744f, 0.049123626202344894f, -0.21760854125022888f, 0.010251933708786964f, 
		-0.015826797112822533f, -0.030092326924204826f, -0.015790721401572227f, 0.004865332972258329f, 0.44936636090278625f, 
		-0.045851729810237885f, 0.06105838716030121f, 0.2537790536880493f, 0.012474555522203445f, 0.02039414271712303f, 
		0.0007439558976329863f, -0.030540332198143005f, 0.052665650844573975f, 0.00115978776011616f, -0.009814294055104256f, 
		0.051230862736701965f, 0.019127218052744865f, 0.3425985276699066f, 0.00844129454344511f, -0.003383629722520709f, 
		0.016207324340939522f, -0.08934590220451355f, 0.044004615396261215f, 0.3786957561969757f, -0.0600719228386879f, 
		0.11251018196344376f, 0.07107077538967133f, -0.0018538542790338397f, -0.057000432163476944f, 0.0033094726968556643f, 
		-0.012888245284557343f, 0.08218397945165634f, 0.07772184908390045f, -0.9525992274284363f, 0.07382193207740784f, 
		0.23294854164123535f, 0.02428729459643364f, -0.04949028417468071f, -0.007494973950088024f, -0.03708106651902199f, 
		};


#endif